-1.215051266038512379e-01 -2.642882331535872931e-01 -2.423104471223835321e-01 2.630708148600895968e-01 -2.214510745145022441e-01 9.041443119851921839e-02 -2.512659416624377084e-01 1.939150665446323085e-01 -2.852180471444759613e-02 -1.815867458428210568e-01
1.502553362094250500e-01 -2.820882328642369541e-01 -6.064520796219668997e-02 1.623667906181365805e-01 2.409214893943157354e-01 -2.046993130541905903e-01 -1.558241482415628765e-01 -6.665376947176637756e-02 2.306442613652298079e-01 2.039899288176093006e-01
-2.917270596304106789e-01 -2.861097584373766267e-01 1.062671139666718223e-01 -2.462179350898304753e-01 2.580036993359610675e-01 1.650640143080043809e-01 -2.853515676701304238e-01 1.780181768848236312e-01 -8.053920636255995635e-02 -2.169765487907446277e-01
1.949921395458813489e-01 -1.089073987086005002e-01 7.817759843548027776e-02 -2.201369124070766681e-01 2.499394455033854823e-01 -3.775766234386424003e-02 2.721157060508291869e-01 -1.196413167810750633e-01 -6.991467949727381281e-03 -1.213471179882484319e-01
1.880555646731005282e-01 1.937811918300442193e-01 2.840433367433836120e-01 -1.447221780331524044e-01 -6.492567604887927724e-02 -1.888521128635849422e-01 -1.624995940181806486e-01 -5.684881281751980042e-02 -8.548909767526305381e-02 -3.224219909310832577e-02
-2.749051758078718266e-01 3.824940443244440047e-03 2.371936838179486418e-01 -5.807665480771606603e-03 -4.840571759026712773e-02 -2.507687117403816224e-01 2.536244971503281986e-02 -1.778636063592264893e-01 2.021324179700315082e-01 2.305795319683449640e-01
1.462224940299083897e-02 2.893030836511902293e-01 9.188052539494273585e-02 1.716294635229379528e-01 1.017222911225326709e-01 -1.809330611294347191e-01 1.057778863431043104e-01 -1.217916811994947113e-01 3.754890119004944404e-02 -1.611820245003083019e-01
-5.661455086105682266e-02 4.911274549199839967e-02 -1.602962351713432820e-02 4.535963706141982188e-02 -2.580596937871930119e-01 1.707649566940941943e-01 1.593990882008114451e-01 -1.703427643162002958e-01 -1.154742365732930320e-03 1.769755038843873751e-01
7.167948176977501085e-02 -1.121352084615601097e-02 2.322675989973593813e-02 -6.696313599695327690e-02 -1.991490931522970631e-01 6.253080488816087357e-02 -1.647770611345361069e-01 2.289708171868673481e-01 5.056480953819025848e-02 3.874394114776608111e-02
-1.572301659778928828e-01 -2.217393515884970578e-01 -2.368033957562537539e-01 2.977226568524286576e-01 -2.024687094673095489e-01 -1.884245653500147277e-01 -1.052791525871552281e-01 -1.309316197417306482e-01 1.486437046800023198e-01 2.640472983622433323e-01
-1.590614353961341543e-01 2.380887087988231010e-01 -6.874065725595848719e-02 -7.951061742316670178e-02 -2.419066393825834993e-01 2.757828344521723318e-02 2.635452725056977585e-01 2.136875402691566506e-01 2.591960007794252285e-01 -6.620360982621717461e-02
-2.284785048811862063e-01 1.379636289294491336e-01 -4.094422080842652356e-03 1.273987065231030891e-01 5.188909483363945974e-02 -1.143855563109241746e-02 1.620843392947816097e-01 -1.757345492670573384e-01 -1.695309158041831410e-01 -1.024985653693245014e-01
-5.160204535839768569e-02 6.915880801475449147e-02 2.878054853984969852e-01 -2.901760982037835945e-01 2.649249174506689841e-01 -6.744935522246126025e-02 -1.608996306259664888e-01 2.875995884790222834e-01 2.984228591117981666e-01 -1.728149105374390815e-01
1.986550917704444363e-01 2.697280932959612021e-01 -7.205480126178626099e-02 -1.901510585827065891e-01 -1.480998189454130198e-02 -5.172630752747742200e-02 -1.751804101973064576e-03 3.464153115648727077e-02 -2.916723277797356184e-01 1.718818177470655129e-01
-2.883904462877627251e-01 2.438900263689702252e-01 -2.536910675297075479e-01 4.058493060920537188e-02 1.781227659949078945e-01 6.491490854068654448e-02 7.915771848863351057e-02 -2.761811699642004458e-01 2.367370044028051512e-01 1.370626210599834582e-02
-2.442741401028800663e-01 -1.997054266127611388e-01 -2.116797664462352069e-01 -1.681300420141764729e-01 1.399358193912819126e-01 1.894568627425656238e-01 1.001461101293651401e-01 5.039646359133631570e-02 -1.951462936659012493e-01 1.292503340039020676e-01
-1.214725472231159009e-01 1.412895226963206685e-02 1.590994631304297746e-01 -6.054404625888981650e-02 1.137047907363845090e-01 -2.229197080401202347e-01 -2.854397732532518717e-01 -2.722002464783128128e-01 -4.393376600804504983e-02 6.653597637997848979e-02
2.495327093898697113e-02 8.942255144502786468e-02 2.655414649684340600e-01 1.870331687718240765e-02 -8.904560558219112854e-02 -2.977260688845974612e-01 3.207508213113274831e-03 1.088419460330755095e-01 -2.319547328706995648e-01 1.629470665618679703e-01
-2.815627476602522994e-01 -1.051490246296722386e-01 1.475036874885984894e-01 9.830793789917147141e-02 -2.612991105598063135e-01 -1.768284351376497310e-01 1.868022469029724242e-01 -2.305634382138034288e-01 -1.721089920745155766e-03 -2.854314165380725243e-01
9.970900150302297593e-02 -2.597068286134610604e-01 2.487459708821519455e-01 -4.994278569328119977e-02 -1.816591943301330836e-01 2.635840991197153094e-01 -1.969318257803986394e-01 -2.853354334289371907e-01 -1.324081937657853314e-01 2.165334373955118408e-01
-1.654384926636508768e-01 -6.029015437371182395e-02 -1.741297997684718435e-01 -3.955255200159490947e-02 2.477426846346886813e-01 1.520253980977646635e-01 1.371818438432469422e-01 -2.241821705729512004e-01 -2.896762723785868965e-01 1.048348981335266439e-01
-2.340276215203446197e-01 2.554193208756898037e-01 -1.098776214855917144e-01 1.915194430165003681e-01 1.679994540412172999e-01 -1.501807239910454284e-01 -9.600886883459638921e-02 2.835559508408250218e-01 -2.794055275630921154e-01 -2.008482170197783412e-01
2.516259261038775175e-01 -2.469921329781867847e-01 1.901590174420521029e-01 1.077920294682231939e-01 -7.300682947534686829e-02 -9.499703900280048741e-02 9.986387135957286443e-03 2.820360727503201659e-02 1.663449649751329029e-01 7.401487251010430146e-02
-2.011750371321982533e-01 -2.649465722995769656e-01 -2.946655859854099835e-01 -1.737137058615773888e-01 -1.628211418694330836e-02 5.953543852432024996e-02 -9.902830614458368874e-02 2.858173486953748399e-01 1.997206624173280543e-01 -2.907561451929451257e-01
4.930403242697950494e-02 3.433292640385054995e-03 7.095507619805996313e-02 1.803049492259407027e-01 3.073610739545795667e-02 3.113111737845053462e-02 -2.605108841089683880e-01 -2.160312438484619513e-01 1.322855727454127495e-01 1.039744380465195128e-01
3.028448175154829780e-02 1.110721769699046790e-02 9.667736681565497481e-02 -2.103730423986135134e-01 -1.041574766641609751e-01 -6.544426374765346943e-02 -1.234860242267610819e-01 1.576679652300759793e-01 -1.079166575409560846e-01 1.839898350957383522e-01
1.002239235948437224e-01 -1.571413194127823099e-01 6.382125329698506988e-02 -2.623383210326180048e-03 -1.265396872759566582e-01 6.481623322462576331e-02 2.865091981455262782e-01 1.018639004994201791e-01 4.292858970298452093e-02 -2.805729125733934515e-01
2.099640439251225232e-01 9.848578567870486244e-02 -1.740079786663731309e-01 -2.645172027992770403e-02 -2.536573881635624805e-01 -2.232265354978548721e-01 -2.193623484273299340e-01 2.928187810939341662e-01 -1.104283982460113056e-01 2.179516311520505734e-01
4.586248754168759101e-02 -2.586488307815090759e-01 -2.295773124618412098e-01 9.353667906677842758e-02 -2.989268073413885451e-01 2.461597097767629916e-01 1.206890101692215667e-01 1.792306654841355762e-01 -2.632135603230305598e-01 -3.330423727121023525e-02
-2.109624420406626122e-01 -1.161478797158488341e-02 -7.043556711339724052e-02 2.983069057583636607e-01 -1.429218285959460988e-01 -9.940267769729618785e-02 -1.242622952233755906e-01 2.073522178806199157e-01 2.283949290497057638e-01 2.607990444370996141e-01
-7.877361389021445004e-02 -1.703459893295155014e-01 -1.761481603371952698e-01 -1.570020581274396976e-01 -1.894195113465851898e-01 -2.842936106400273388e-01 2.979647703276788184e-01 -2.145506450864597126e-01 2.932165496183828934e-01 2.621134712372603093e-01
2.725383027201508379e-01 2.300357531342180351e-01 -2.077171571827906571e-01 -7.969521303392954059e-02 -1.549952919529146433e-01 -1.467558178958702220e-01 -2.699808579886343041e-01 1.374398553399004408e-01 -2.322128353931043054e-01 6.034523996711171900e-03
1.423248226039101061e-01 -2.383370307313588121e-01 1.604919561348943646e-01 -3.813718511178321169e-02 -2.581887534828387620e-01 -1.420925725303428255e-01 -9.909513597362865078e-02 1.177326923939397973e-01 -1.193480085025421522e-01 9.159513657392215347e-02
-7.302773291055192351e-02 -1.977526293534486168e-01 -5.141305088039219151e-02 2.611312117267958199e-01 -1.427627448015452438e-01 2.009532732446813186e-01 -1.275901043700783666e-01 -3.804134156396093980e-02 -1.560759377357754663e-01 8.372029487485999066e-03
2.688408057779259619e-01 -2.835692200918865646e-01 2.757497339834617534e-01 -1.967289630169882786e-02 1.451730888241429263e-01 5.778215279382303837e-02 7.788774602521886248e-02 -1.254087537344866499e-01 2.566749690999951539e-01 2.580592169351675902e-01
6.164826466935341420e-02 -1.533188282998701746e-01 3.650515149438482432e-03 2.956816133953257819e-01 -3.282522075544153095e-02 -6.812305228784981681e-02 1.372528492269879941e-01 -2.433741351557086041e-01 1.644226726823926898e-01 1.480275481303487961e-01
-1.677970389838732146e-01 2.313323337439397442e-01 1.162112758359047371e-01 -1.082797843122232095e-01 1.782850579923016543e-01 -1.229824583135574745e-02 2.810739185761623182e-01 1.430772458182630880e-01 -6.032117745987181090e-02 -9.663154497404011223e-02
2.416317400309055397e-01 -2.498772956690580582e-01 -3.315460020975897204e-01 -2.932463391387157836e-02 -4.871803238840765049e-01 -2.038091415339969847e-01 3.742930709431526171e-01 -1.156498401954585142e-01 -9.747722276032480537e-02 -2.788832292203946572e-02
7.749963805476739465e-02 -2.359960255851690780e-01 -3.249251389604361773e-01 -1.364882313791722368e-01 -1.474077925138355560e+00 7.571853503192671475e-04 2.200459629547697915e+00 2.279001346563016006e-01 -2.692106614505048179e-01 -6.320062757800207209e-02
2.614060267650410441e-01 -6.263275326365208562e-02 -3.317329932844168550e-01 4.459258625442558133e-02 -6.402679531203823160e-01 5.481256648954385691e-02 1.867417035098314138e+00 2.155214794490389330e-01 -1.416422754983549248e-01 -6.379481461471875336e-02
1.789566539050158056e-03 -2.827141309267869884e-01 1.790610985680113343e-02 1.936981641930160536e-01 -6.139400983878307017e-02 -2.047095273102462198e-01 -1.978445308643994593e-02 -4.384718410269777822e-02 4.674595763418104566e-02 -3.612290646742899458e-03
2.835520700278752471e-01 2.001568053808077674e-01 5.047790459931791318e-01 -1.231592174131995732e-02 -7.467800077353858867e-01 1.018208442683821158e-02 -1.219019194472309442e-01 -2.540138862306108303e-01 1.721088910107280157e-01 1.035035448335624997e-02
1.792663082720351575e-01 1.614011988882750326e-01 8.545702857697055066e-01 1.929357169795973825e-01 9.312271338545419219e-02 -5.679197530681590056e-02 -3.019403190791886127e-02 -1.139296913836976011e-01 2.198038307736860375e-02 -6.496709379413487251e-02
5.862140227594625497e-02 1.876038663639112980e-01 -2.299600376329346552e-01 -3.982009230474459205e-02 -9.021153948233043840e-01 -1.418282876676437709e-01 -6.991390647639983413e-02 -2.381149799996552519e-01 1.297015080661272912e-01 2.072398535362111605e-01
1.993045910323567038e-01 -1.543567842953491587e-01 -2.001573213967611509e-01 -1.349186765968056201e-01 9.889032155712657035e-02 1.147950943965202475e-01 1.718786159576844996e-01 1.450831492120454591e-01 -2.329491633338938716e-01 -2.205946950973511900e-01
-1.262190872348566695e-01 1.361936940165313081e-01 -4.676966473887395059e-02 -4.718597127300042660e-01 -6.507047250804603999e-02 -4.368258861906180734e-01 1.475763485957161336e+00 -1.973940020342106472e-01 -2.371648879527094578e-01 2.274674418288629707e-01
4.964713846540086406e-02 2.610199145978501778e-01 -4.225054240217557266e-02 -2.281443845622601885e-01 -1.837643984191200119e-01 2.101408062472373550e-01 3.854790844985113707e-01 1.702540422264657294e-01 -2.482603694651682180e-01 1.200317450679733167e-01
-1.068648726317973918e-01 1.090121658072334965e-01 -1.037152477688546570e-02 -2.844812803667544632e-01 7.507587087620365418e-02 2.484872115245378987e-02 -1.263771268134195325e-01 -2.474610920356030697e-01 -2.371612698962430321e-01 -4.182278416750995209e-02
-1.717536719813927970e-02 -9.131277376601640294e-02 9.833659494100188692e-02 1.794374586613627365e-01 -2.604066486232953781e-01 2.446899055360945430e-01 1.725080149601398993e-02 7.641093081079253224e-02 2.484599081846135538e-01 1.879871137098756972e-01
-9.648015338373608363e-02 2.488551051153931049e-02 -1.987146417370334317e-01 -1.821708182717257651e-01 -2.620917760198749336e-01 2.463906794868908623e-02 -8.603836821376623090e-02 -2.022913553772461848e-01 9.178297431562459918e-02 -7.726069108716129841e-02
-1.208461544529700060e-01 -8.785603055403984341e-02 2.429672921012953624e-01 -2.778012004775894384e-01 2.361032408577855013e-01 2.854554893516073055e-01 -2.183806818557382790e-01 1.992247584318568299e-01 1.793145710929319181e-01 -9.411384142577070011e-02
-2.022613071359462000e-01 -1.763098351603485658e-01 5.115501479720141464e-02 -4.141464128835803393e-02 -2.351619296320097141e-01 -2.242444586734989032e-01 -1.034830051893959324e-01 -1.264953750595910753e-01 -7.670514740247105778e-02 2.578760002163477671e-01
-2.423686859105343705e-01 -1.962164672276778266e-01 -8.535998780679679432e-02 -2.930040463259794836e-01 1.155219410723005713e-01 -8.677634493120534032e-02 4.273349138986848317e-02 1.857220546810067763e-01 1.039267320423817864e-01 1.132336374128068979e-01
2.983667667482139962e-01 4.661944380605598237e-02 5.678589680141121754e-03 -4.369966666510394226e-02 -1.596602359673432447e-02 1.076545883886831367e-01 -1.154948408025935069e-01 -2.143248269415612417e-01 -6.677380969675478228e-02 -2.355691724669325415e-01
2.456186097603998975e-01 1.496247436606035208e-02 2.640655284650775259e-01 -9.409346823864522813e-02 -2.296934196992603816e-01 -1.774881331201215440e-01 1.141343903318840503e-01 -2.134113824666055148e-01 2.521081912205760944e-01 -1.898870907886805459e-01
-2.408757023958556232e-01 2.300066174397674135e-01 2.192589717126069426e-01 1.169023669136842747e-01 -2.809355673744714510e-01 3.049186672357295791e-02 -6.190600818537034256e-02 2.544116131069019127e-01 5.708632503515265189e-02 -8.317173003266065123e-03
-2.832686976748385876e-01 1.004631864230794980e-01 -1.718992707323006297e-01 1.310819922349488187e-01 -3.655150595755435328e-02 -2.397197236488394778e-01 -2.782628428769480244e-01 1.340944081233370611e-01 -3.849554389532772181e-02 1.232049064727029908e-01
2.463132451004435008e-03 2.544944318050788579e-01 -1.487591114378258861e-01 -1.285929616392622599e-02 -2.158997876212330747e-01 -1.781466656222162048e-01 -2.558738538565076270e-01 -2.226853573544106124e-01 1.879859132072714822e-01 2.328774631981258003e-01
-1.602452325976549963e-02 6.098066476072766529e-02 -2.032496358759608712e-01 6.442780966410444066e-02 2.384834665379122476e-01 2.380338650229222863e-01 -2.112121638310503202e-01 -8.700705903254671303e-02 1.288499341967743739e-01 1.590441479579365325e-01
1.550401461373174805e-01 -8.670251308550580571e-02 -1.848271556212975342e-01 4.894302177401049780e-02 -2.930776163247094113e-01 2.415099099771149116e-01 -4.128247004100282780e-02 1.659633681159643492e-01 5.747637675353745035e-03 -1.332654622761619834e-02
-1.863051582366769265e-01 2.699194795169443384e-01 4.659624909068182941e-02 1.156429123852442675e-01 5.302754885688443220e-02 -7.660175664037377485e-02 2.401017107642762771e-01 5.370659842214231539e-02 2.462810643533430710e-02 -9.988028285099534442e-02
1.195506101115834108e-01 -1.269709020313841974e-01 -2.297124256001972231e-01 -1.096003609579171978e-01 2.007020291845774129e-01 2.332398205569863325e-02 1.980507606711892077e-01 -2.566236947583548367e-01 -2.806486227511998388e-01 2.439141315495689244e-01
2.548198355959374606e-02 -1.533472481732322257e-01 2.583137220369695064e-01 -7.001311944728703107e-01 1.553125391084876905e-01 2.236754775782669458e-01 -1.264967848953752472e-01 -2.853706611304758778e-01 1.327951345690451812e-01 7.144170871237237597e-02
-1.455727602391630460e-01 -2.833311501471442173e-01 -2.873594133768546666e-01 -6.768924342722174581e-01 2.410464095870645806e-02 3.396893535717460111e-02 -1.086132916730815356e-01 -1.886533169643363483e-01 -1.858680208379144827e-01 9.239040451104463259e-03
-3.956352215532941141e-01 -2.801918652937994691e-01 4.794777584668474812e-02 3.825032303147979373e-02 2.586387489973274167e-02 -6.503862457318046464e-02 7.723494791933183112e-02 -2.395874128181375573e-01 -9.162224830684193022e-02 2.949358420471472342e-01
-5.801980050516550858e-01 2.964307183621529007e-01 -5.738703207315872801e-01 -2.152652308624716793e-01 -1.498664385953777156e+00 -6.791977633449203244e-02 7.902071494380966676e-01 1.986355973520358420e-01 -4.747591449017132814e-01 -1.139066584218033640e-01
-5.913124637094442360e-01 -2.894096201143522840e-01 -1.974694465538506249e-01 6.127310839832772471e-02 -2.387858295847809842e+00 -2.610529704509686466e-01 2.396724924187314976e+00 2.162626157843627328e-01 -6.464104547417484081e-01 3.305261899945105553e-02
-8.122933777298435576e-02 -3.010289687261945013e-01 5.085514620215508819e-02 7.742855810395060656e-02 -1.272781712156712874e+00 -1.583973184718196481e-01 1.976569457342449931e+00 2.326426195221967252e-01 -7.890351599420211137e-01 1.219162469129179138e-01
-2.847240161926488655e-01 -3.009078611546200932e-03 9.044869526575229912e-01 6.914169934768060743e-02 -1.253075817111988455e+00 -1.462472848546794602e+00 1.813552476612577125e-01 -2.293003146831382177e-01 -2.215781902601040354e+00 -6.982597442283508538e-02
-4.266465731604467404e-01 4.147740780700437391e-02 -2.121523909014049192e+00 -4.277467451564365142e-01 -7.877364080236761712e-01 -2.550144618068670876e+00 1.835665668687092023e-01 1.012531896659135122e-01 -2.438396433164781385e+00 1.945899759489980174e-01
-7.557237054497554229e-01 -1.043126590828938605e-01 -2.480179794645746227e+00 -1.894469721666833806e+00 -2.928268853572077113e+00 -2.403922912160167513e+00 4.321972760576089367e-01 3.809294174159344459e-02 -1.677493962554210460e+00 2.581979684925410079e-01
-2.122199860494633772e-01 1.939283378378034439e-01 -3.287112495337137119e+00 -1.555719066625761648e+00 -2.947705434933177937e+00 -6.853771800324137686e-01 5.692978400260106930e-02 2.052815786500438722e-01 -2.193351788927456525e+00 9.196472271459255055e-03
1.255658913457236570e-01 1.014360012844430226e-01 -1.694976104905365988e+00 -3.840913137977150504e-01 -9.742920653593956093e-01 1.228195289779804855e-01 -5.221185172617844872e-01 -3.073905609512156412e-02 -1.535301232548296646e+00 1.046704188031493676e-01
-1.155028337038807584e-01 6.197681930267656680e-02 -6.719240787450584396e-01 1.545954688345047012e-02 -6.774135228784519125e-01 6.345801478824453223e-02 -4.846771541562564511e-01 1.454601984432091211e-01 -1.059229327965484968e+00 1.203376638064497794e-01
-5.218207368198448659e-01 -2.666598986920838965e-01 -1.014636686762187656e+00 -9.132613642057976211e-01 -6.466872852402082428e-01 -3.221603841318010364e-02 -1.175200779569766540e+00 -9.738353710117481077e-02 -1.600612292607896725e+00 9.616717945373987053e-02
-2.182608388472154770e-01 1.891128588553147583e-01 -5.855570654348722925e-01 -1.281127676652777048e+00 -4.164509264005586964e-01 -5.693853055762974069e-01 2.241103588547850856e-01 2.187959864675300126e-01 -1.964960028369490130e+00 -6.068332077267687974e-02
1.969559292290242181e-01 8.240722184357046620e-02 -9.821428026750766982e-02 -8.520936854318539311e-02 -9.582790416056734539e-01 -5.468430238098127560e-01 7.765962907330205001e-01 2.485186796495897354e-04 2.207619055667066621e-01 -2.985900246230694388e-01
2.866031909743213535e-01 -1.531520175542330497e-01 -2.574683747500377540e-01 2.851055428542210168e-01 -1.123958122839140206e+00 -5.340196044862527414e-02 3.421268623071651582e-01 1.185511889547196662e-01 -2.938169457196548873e-03 1.653284961846637757e-01
2.736915998902948455e-01 -1.142882885796060732e-01 -6.613438959050627064e-02 8.430850338827444723e-02 -5.266434433870180731e-01 -2.818266094459149218e-01 -3.286794667323456043e-02 4.064727155624547894e-02 3.341788483713770130e-02 -9.089095149276163466e-02
4.349367793885283717e-02 -7.477783817071342876e-02 -2.987472794370947815e-01 1.681251534751371790e-01 -2.656648015481142266e-01 5.872370823377665028e-02 1.973798510785337301e-01 1.735972012065319925e-01 -2.737094557336112732e-01 1.901801051843629020e-01
1.034074337554194978e-01 -5.568263582347715568e-02 1.657434074734460694e-01 9.526834803696221377e-02 -2.709100102834263724e-01 2.984141190742518046e-01 -4.397596449438323507e-02 1.672188500399252598e-01 2.777762118776261335e-02 -2.490365223823059193e-01
2.001157158241143041e-01 2.924336162333280309e-01 9.871898482007840370e-02 -1.072216268147890839e-02 -2.002962622562878270e-01 -1.535883740899964267e-01 2.575049278609312098e-01 1.243735059356625983e-01 -1.030078623669965776e-01 -1.932928069353277434e-01
2.356022947058276640e-01 2.550125879893472836e-01 1.234407267601946856e-01 -2.091160450445002650e-01 -1.223244207755431467e-01 3.368932957661008309e-02 -1.141240676915599994e-01 -7.038781723824796832e-02 -1.557032235607999915e-01 -2.559710915005941612e-02
-9.514028832948159820e-02 -7.408421441342941116e-02 7.012533321570940670e-02 1.858006222741204749e-01 1.904046714358276771e-01 -1.064169395031875631e-01 -2.688920822808471556e-02 -4.150696908808093610e-03 -2.012035060834648226e-01 -1.489781235616651212e-01
-6.290630611610251166e-02 -8.621387091183896345e-02 3.294984430050401647e-02 -8.808415421616175300e-02 2.849929348498046466e-01 -1.619235732883176626e-01 6.426108641446642844e-02 -6.390800876546356979e-02 1.293318308581859477e-01 -7.618636615953586211e-02
2.980321500091063780e-01 3.449134733502529082e-02 2.511779651558397330e-01 -2.571581514769262222e-01 -7.529016321321330141e-02 1.544915183192874242e-02 1.339841702788859279e-01 -1.271030374834435650e-01 -8.609350606629173619e-02 1.167164096453107147e-01
1.590717764669812295e-01 2.106646555568669199e-01 -2.364755427002987465e-01 -1.033995277631188647e-01 -8.751532050245147687e-03 1.369527268267258791e-01 1.545698764297703809e-01 2.880093323750118617e-01 2.075817956666876074e-01 -1.705510191102918849e-01
2.539474298671983710e-01 -2.941182248348523376e-01 8.758954765406745668e-02 -3.596157095226149014e-02 1.342042424632894360e-02 -1.071434698353025960e-01 3.578536063891840646e-02 -2.543989603931645083e-01 -1.646331944468648611e-02 2.038259313786217053e-02
-2.390029148057927766e-01 2.006242117063156138e-02 2.705010636722638417e-01 2.735776412036150518e-02 -2.989263115200136434e-01 1.241369744730919100e-01 1.085518616603227127e-01 1.610849994477366876e-01 2.732071205609363784e-01 1.992270248296812429e-01
-2.793665500709535121e-01 -1.703533273453853025e-01 -1.278045271782371206e-01 -5.807001131626916557e-01 -2.975598355061237488e-01 -4.793944174047348739e-02 -6.786756404801139175e-02 -2.443921744648436256e-01 1.970495090720142395e-02 -7.308616799678019360e-01
-2.565808614550375566e-01 -2.269374203412462543e-01 2.391599981958695831e-01 -9.437153789379351121e-01 6.819036996124711036e-02 -1.792090927299352932e-01 1.011551366771934468e-02 2.246655754017621853e-01 2.343019317233126508e-01 -1.032131686710681784e+00
-7.664706764537315697e-02 4.846637773313622333e-02 2.688809374394727780e-01 -8.399606398623874481e-01 -5.011274600046052852e-01 -1.692962213358532031e-01 2.191576406747353101e-01 2.882202023916654032e-01 1.963162793021070995e-01 -2.226416909370692032e-01
-6.567901362122255948e-01 2.415299798039483581e-01 2.825170392374454220e-02 -1.466758489904212759e+00 -1.676907678671538449e+00 -1.298670339067580670e+00 -1.351736312867196643e-02 1.931654683022177577e-01 3.325419667566374748e+00 -3.505709691664725125e-01
-7.334707847390966595e-01 1.130446362390846171e-01 5.196659185846221884e-01 -3.329471687346387210e+00 -2.627537167824917752e+00 -3.227683312156657269e+00 -5.247653471865354469e-01 -1.654521123523087223e-01 6.717416758042452862e+00 -2.669064464110720181e+00
-3.145028350448839105e-01 -1.866003985291239675e-01 1.601320410496110513e+00 -2.564541510366549648e+00 -3.216658252725588696e+00 -5.791156526683568728e+00 -2.958012770637790112e-01 4.722285060910824672e-03 5.052263759293556866e+00 -2.671670968922241762e+00
-4.002693701754262978e-01 -3.133467299349068647e-01 6.160155030175278323e-01 -7.361378163162564103e-01 -3.219016657390604053e+00 -5.500446914792507691e+00 -1.702046020148472394e+00 -4.406795006508721357e-01 7.607244570940146389e+00 -8.180806715133237539e-01
-5.377090444462313545e-01 2.232341705522420949e-01 -1.014472222923419764e+00 -3.893904593212964116e+00 -2.897080676355982654e+00 -3.466012371680423421e+00 -1.060504065120873030e-01 -5.097393980393145618e-01 4.343193862386764081e+00 -1.411795400639106912e+00
-1.062110184828471082e+00 4.808048014955850213e-01 2.045127874663716483e+00 9.514144341036767649e-02 -4.565240876755916943e+00 -3.047328421409974730e+00 5.407032218612251029e-01 -2.633180850345416824e-01 -2.217321784851974176e+00 -2.998503693481447741e+00
-8.020181268649819728e-01 -1.018328865951104945e+00 -1.707324881396611538e+00 5.090494242480911424e+00 -5.106611283180779726e-01 -4.636288700109578720e+00 8.692928942574735807e-01 -1.833172597756671518e-03 -7.788475885929279308e+00 -4.715943474314503447e+00
-7.570228508287575320e-01 -8.094228025629581769e-01 -2.471024875665820630e+00 2.401478989195301672e+00 -1.249783445799904857e+00 -8.423169380981663679e+00 -3.348354502024772916e-01 2.481280542228033181e-01 -5.805158323137467491e+00 -1.448950913070066626e+00
-1.126001898521115985e+00 -1.580951312284698540e+00 1.734855778088298495e+00 5.568720139172564920e+00 -1.349385104385589562e+00 -6.916541784190451736e+00 1.690028610204526105e+00 2.229073020781859316e-01 -3.332687519999510073e+00 -1.006913013576438143e-02
-8.527123187670073712e-01 -1.706007985529621296e+00 1.850499316977339159e+00 2.302901509375216982e-01 -1.779470242956477488e+00 -2.969639714048706747e+00 2.087403693634300339e+00 2.195081759974554791e-01 -3.684847232785980253e+00 9.519251245566617836e-02
-3.240280211842718749e-01 -1.137137872456660315e+00 -1.510350214035628635e+00 1.054067273790187054e+00 -9.894915472907990228e-01 2.833825992368382174e+00 3.259085092441117659e+00 -6.865643433931092887e-02 -2.928201291143488483e+00 1.373108771643379855e-01
-4.826675408967027181e-01 -1.575524277395831119e-01 2.589753061902577702e-01 2.432196978856465464e+00 -1.418505421919345810e+00 -5.508721564650312708e+00 -4.216918740652886299e-02 6.444788680172380824e-02 -1.432367152810733568e+00 4.317849452613875538e-03
-5.110703579340099001e-01 5.271942605360763201e-02 -7.736900505081827362e-01 2.347137668053943527e-01 -3.130869865671690455e+00 -6.733807604802805713e+00 8.622267925307336434e-02 -2.132193297628193207e-01 -8.803060181234012571e-02 1.543442347645087032e-01
-7.836354558984033325e-01 -1.150856113697253491e+00 -2.717722160533188713e+00 -2.022887204512143988e+00 -1.112520409300971513e+00 6.955656264037888281e-01 1.582909229996714018e+00 1.561759383895629516e-01 -2.480555345611724083e-01 -5.447782162565856234e-02
1.796699975552507045e-01 -2.177675928117224657e+00 -8.956935327854536055e-01 -1.378813159927174459e+00 -1.351735403269977431e-01 -5.434802843769147351e+00 2.030448154725069898e+00 -3.070769287751090593e-02 1.147458149216427525e+00 1.640077325765533223e-01
-2.011688523229755721e-01 -1.205197006047716846e+00 -7.910358509235665414e-01 -5.466613752149647176e-01 -3.403199184616672035e-01 -4.693998907209311788e+00 1.430937562952780961e-01 -1.097890203009924959e-01 3.027959523823892773e+00 1.574505160115925451e-01
-1.475808001065608277e-01 -9.765284746368328994e-01 -4.604901654243006570e-01 -4.761034677434238804e-01 -1.019092668091210463e+00 -3.784904567885059912e+00 1.501519304081131212e+00 -2.684476765298865475e-02 4.685594698747735931e-01 2.561830555278205579e-01
-1.830764113747280208e-01 -4.179781764156748070e-02 2.864138250960577836e-01 -2.842790729114414439e-01 -1.599707125557866538e-01 3.178398315592978030e+00 -1.457329354718790437e+00 1.427018767266423072e-01 -9.834368958761877111e-02 5.565543848049192555e-02
-3.752404867502681651e-01 -2.071424593849445217e-01 7.902392603367647261e-02 -1.827146831282775441e-01 -1.672347469018068689e-01 8.885330707434676567e-01 -2.119335368855616020e-01 2.781812883140361570e-01 3.123045887826153555e-02 3.452801696176754920e-02
8.698101564256904839e-02 1.527575854802251110e-01 2.559840185231054832e-02 -2.847400947975924912e-01 -2.575882756179203592e-01 -2.704147860905903866e-01 -1.127696957963359170e-01 -3.638665520400408138e-02 2.791899874657210456e-01 2.249430687010955943e-02
2.763102080398258109e-01 -1.072561286810883863e-01 2.962036266945469731e-01 5.792291186507403378e-02 2.428530169209978662e-01 -1.742675252673076269e-01 1.176196253785396495e-01 2.408408961655236769e-01 1.591882648402299649e-01 -1.730456850836371019e-01
1.654412677581426627e-01 2.798819406269510979e-01 -7.492576450350468820e-02 -9.808525361840816914e-02 -6.919308065551246778e-02 -1.889445774968371294e-01 1.995692344532951079e-01 -2.296432097821906049e-01 2.063363341089957115e-01 -2.077642078007553295e-01
-2.886104099201424189e-01 -2.368381446889294972e-01 -2.529702521267340742e-01 -2.521061653204125785e-01 -2.954380171807370892e-01 1.757812927748875764e-01 1.482405364250520829e-01 2.288972528561275532e-01 -1.367711062894848006e-01 -2.871193614519467752e-01
1.513286832080560362e-01 2.147262314456755417e-01 -1.898321759209395665e-01 -2.084732610460839908e-01 2.916105017926843845e-01 2.245131341215368947e-01 -1.381430088566886483e-01 -9.083928202846608402e-02 -1.537008584182025794e-01 2.323396605378909574e-01
-8.814331969333100147e-02 -6.498887666866570711e-03 7.827618361367343347e-01 7.707358297756010668e-01 -3.776034186002374948e-02 -4.583568397574334652e-01 -3.338197512497666497e-01 -4.156638637399590053e-02 -6.625956305605612551e-02 1.517689327204344574e-01
-4.372520165132054992e-01 -1.241579712694068638e-01 1.234036155735116713e+00 -4.635217776991538141e-01 -9.372647829065494651e-02 1.624349992963075029e-01 1.947326202696258446e-01 -1.516963764046520835e-01 -1.574699351294923888e+00 1.434074513967721898e-01
-4.283640404567590765e-01 -2.264087246740196235e-01 -1.134385187826041363e-01 -8.981206685875049445e-01 4.599837724318977528e-01 -1.421038624061035371e-01 -1.873157720887254352e-01 5.126214236172915717e-02 -1.362503691173172937e+00 -1.400304130804326808e-01
2.023748454553355169e-01 -5.058748417038536060e-02 -3.788665053388523551e-02 -5.210068860866870821e+00 -9.252306160433507731e-01 -1.653057545066824563e+00 4.123278427419134196e-01 1.285743564051310961e-01 5.386608230785990159e+00 -2.346706496439192324e-01
6.312353278633354714e-01 -2.493724227932699322e-01 -4.509370956419445076e-01 3.171283036661570520e+00 -2.693107678029780239e+00 -9.570570911084837817e+00 -1.342323267423706001e+00 3.477074492080672874e-02 5.882077061516254091e+00 -1.383086571471884296e+00
-3.002817200645538920e-01 4.440314273662251399e-01 7.410369098934298515e-01 3.867008172390633547e+00 -5.912855609816329849e-01 -4.502981563873742488e-01 -3.128558952013321459e+00 -4.666280116224955643e-01 1.071663304620628088e+00 -3.165082998720523122e+00
-8.468528734358548027e-01 1.205584473502245846e-01 1.606709081658420635e+00 2.382025960126068487e+00 -6.812212004520240560e-02 -1.275809974009333381e+00 -2.400853423447509183e+00 2.560776921107843496e-03 2.971269415216708509e+00 -3.579223572343203319e+00
-7.932926454900968150e-02 -1.402405839405745702e+00 -4.024035091796993591e-01 1.127954585623731631e-01 -2.203315883861263202e-01 5.280384480054600260e+00 -2.977732377900875527e+00 -3.814250784736897826e-01 -2.794165058335831731e+00 1.313298900830610627e+00
-1.043599814956265526e+00 -5.857456956792509439e-01 1.867895604350201300e+00 -3.257847094948056910e+00 -3.087367374819039334e+00 2.943240176433966848e+00 -1.255897775079213963e+00 -1.657801075174703209e+00 -3.011074762615704614e+00 -2.209628005567676468e+00
-3.080128378334766603e-01 2.139437285175697312e+00 2.627246887582980861e+00 1.184487541194557902e+00 -3.177176697780864423e+00 -4.558312176237670599e+00 -2.997630758586932398e+00 -2.584171572604805789e+00 -3.025170402852590978e+00 1.601028917916000882e-01
-2.303933508807088248e+00 2.444013554272514988e-01 1.860389973354224402e+00 3.487163073312584238e+00 -4.597412181737281500e-02 1.228111109567061154e+00 -1.926530537031332369e+00 -2.903199783375158827e+00 8.614929183566575333e+00 1.168360522536677326e+00
-2.657133634988809945e+00 -2.347311322331352201e+00 3.215993769936917879e-01 1.790699646044584092e+00 -5.626254344762688930e-01 -4.623074245951420913e+00 -9.830611427333513230e-01 -1.964927045266600336e+00 -1.140434231252757113e+00 -2.025171612308461100e+00
-2.763996999996037651e+00 -3.967190231106391130e-01 8.906934427304382673e-01 -1.784136187714557842e-01 -2.866085322652831557e+00 -2.906527828006884917e+00 -1.921886546411525565e+00 -5.978338597963663847e-01 8.109937072972983607e-01 -6.384135069134354801e+00
-1.428551282609575424e+00 1.200749190212228035e-01 1.290669953887844557e+00 2.569200082060050239e-01 -3.843895108588740728e-02 -3.319483132333512554e+00 -3.247208113589968193e+00 1.392944034419313359e-02 9.223711574672089242e+00 -5.755795934377617940e+00
-1.270682474517160543e+00 9.884746590245285791e-02 -1.654334746867094807e+00 4.943057946531270730e-01 -1.215904944315080893e+00 3.215331792658924215e-01 8.838185159626679166e-01 -2.633116741069523314e-01 -1.313775012852602897e+00 -3.774101666435275781e+00
1.276542790845117681e-01 -2.067841133698986589e+00 -2.448024218441160471e+00 2.853938184256965549e+00 9.486592434497311821e-01 3.097247863499410503e+00 2.013634115856010043e-01 -5.215362471282347645e-02 -6.091593967539843391e-02 -7.079204901526587435e+00
1.748858608428442984e-01 -1.063918547787136681e+00 -1.503107031115022973e-01 -1.108736396567644000e+00 4.343742523415291323e+00 -3.547442231679030833e+00 1.282727423199538253e+00 1.403279989823320029e-01 -5.228370156414272607e+00 -1.826111194818307526e+00
-7.719914688755807886e-01 -3.189413252300336565e-01 -1.776282340025065798e+00 -2.814163277165491639e+00 1.147593842542034670e+00 -5.484480562163440709e+00 2.702138330107234587e+00 -2.523827081318946730e-01 -5.729002342600447051e+00 -1.540561896147888632e+00
-8.214447568874366779e-02 -5.180374323127400205e-01 -1.492056275494509254e+00 -8.602399573999317539e-01 2.740840025212214037e+00 -4.729475599416111287e+00 1.813150881091838640e+00 -3.121217478995381156e-01 4.171052246724244128e+00 -1.188900181681648238e+00
-1.003985336394797034e+00 -1.215713360266466925e+00 -5.867003972669035949e-01 -1.626699728131878464e+00 2.642095015864256435e-01 4.869083460328562651e-01 2.612649696174180747e+00 1.789357262008856586e-01 5.108090614791363393e+00 -3.650514801276700250e-01
-7.025183243738754024e-01 -7.025392439896225305e-01 -3.486844983284441146e-01 -7.960644710112357858e-02 -1.574095671740256108e+00 -3.532847518678038590e+00 3.022664890340157395e+00 2.830187158419942839e-01 3.660296433173817920e+00 -1.129200805770719795e-01
-3.482850671294265843e-01 -1.658311293189121960e-01 -4.991033240749870314e-02 1.026403698219002791e-01 -2.052133241441962963e-01 3.903621128233334847e+00 -1.510323024297027805e+00 1.668637888619871057e-01 1.665133132673397021e-01 -1.459020591116506893e-01
-3.218021786805871920e-01 -2.067152131516026281e-01 -5.881753924201205130e-03 7.981413688992894384e-02 -2.526382619461668422e-01 2.986250818606347446e-01 1.452179774512343813e-01 1.433923220506100327e-01 2.898960752565475363e-01 -6.465774266216534061e-02
-1.554606172916556117e-02 1.460389312866677836e-02 8.382980194239386673e-03 1.573413812307727921e-01 -1.710664763084655260e-01 -1.335353429841545925e-02 -6.810149820816069344e-02 1.638766434056120880e-01 -1.781321030162762997e-01 5.755197637140724298e-02
2.178736048185109797e-01 -2.589776035256683984e-01 -1.560590774019491589e-01 -6.465752844136479771e-02 -8.717412793013243344e-02 -2.831566907232583308e-01 -7.289918193175742855e-02 3.594123575711660745e-02 5.204868814980406766e-02 -4.873790591282811668e-02
6.909298566755495141e-02 -5.760801305766893865e-03 9.011548074799263786e-02 2.377631197865625601e-01 2.505548939204405023e-02 2.937272203206365284e-01 1.080109786463524513e-01 2.102254447500661594e-01 9.736288470977599863e-02 1.575996520125953482e-01
-2.103362055827415478e-01 2.983241213455096186e-01 7.174827928132865296e-02 1.304201339824140327e-01 -1.097372471532704619e-01 -3.701146952512091026e-02 1.304125555820789817e-01 2.415136811905628789e-01 2.180977016021610759e-01 3.391482073498286454e-02
-2.910128495530767689e-01 -6.166018863562491847e-02 9.661302291310419621e-02 -1.600643422993589804e-01 8.719280263139617126e-03 -1.855488644517697128e-01 2.202096420040588476e-01 -1.018205075335499588e-01 -2.697310525435821504e-01 -2.473980108248316767e-01
1.591849496682978260e-01 2.320888161906003444e-01 -1.624755071186761435e-01 3.090790397092535002e+00 -2.382964420477770573e-01 -1.435666671883192747e+00 3.810879513330089896e-03 5.357369421339935878e-02 -4.856554823791698894e-01 2.767814694394459818e-01
-3.716852396070284836e-01 -5.314324977329423771e-02 -1.143127527841001134e+00 4.884546432099534208e+00 9.650893693958815245e-01 -1.025448938444105673e+00 -3.043169807765774282e-01 -7.038097738241155810e-04 -1.599201254726866583e+00 2.490983592624676501e-01
-7.323278221108406871e-01 -2.441978818524370709e-03 9.962855145837075099e-01 4.658176548897390745e+00 -3.883429275155281246e-02 2.625200895896273146e+00 -7.949368103979441713e-01 -9.038749622949548979e-02 -3.375587986815871133e+00 -8.931972879995206949e-01
-3.924102315300666000e-01 -1.488329392491736791e-01 2.252308402030564149e+00 -2.006513674304548189e+00 -2.047481470848227403e+00 -1.710158171050852882e+00 -1.238670414408218345e+00 6.301928003426378044e-01 1.656612624897610297e+00 -1.583962142892856972e+00
-6.214971258918697838e-01 -8.154017572066907249e-01 -9.239256339705730348e-01 5.149687184102311299e+00 1.903263838595631974e+00 2.485352610611493596e+00 -1.771920155667679131e+00 1.214270625201443243e+00 2.889488474257149164e-01 -2.503840753889899684e+00
-1.471728013632259024e+00 4.071038055368662034e-01 -3.049378246520444868e+00 4.420511435717553006e+00 -9.130298354445440800e-01 -9.435905072765107704e+00 -3.079897335171343009e+00 4.774519737234731442e-01 -4.947404346578059275e-01 -3.679696868774176011e+00
-8.903294390807880987e-02 -9.498101621954320173e-01 2.623427643708118318e+00 -2.291647519536935462e+00 -5.290099253766378240e-01 -5.482741311285884045e+00 1.135504868728277161e+00 -7.219155669845496170e-01 -5.971348170717515558e+00 -1.437884069690868127e+00
7.554573349961757334e-01 -1.361014447038000785e+00 -2.684686343324456104e+00 1.304579692845036831e+00 -3.308247415144153880e+00 5.686224701136344262e-01 2.082827582985117054e+00 -1.045390158853036322e+00 -1.026321011016009255e+00 4.545270210068689032e+00
-1.186053421383189699e-01 -2.165601621035081692e+00 9.217603015194544280e-01 -3.623659123937716942e+00 -4.495197488113347184e-01 -3.846222714022294653e+00 9.093483305781282500e-01 3.094152746107390328e+00 -4.674216365562577025e+00 -4.471723906875164190e+00
1.187286855064912494e+00 -2.866777839765803915e-01 1.254210620477594018e+00 -2.514333477333420497e+00 1.705443804693822507e-01 -2.502691579163513147e+00 -4.476603002207832915e-01 1.486695756456485551e+00 -4.322185789918030707e+00 -2.788235591274725422e+00
1.832777043661407035e+00 -6.901442698206665671e-01 -6.779664843384471951e-01 -3.480285036296797418e-01 -8.799891825876522411e-01 -1.064605159625284792e-01 -2.393650918947121120e+00 -1.723093253918423384e+00 9.775171567181395460e+00 -1.017301123468406621e+00
6.547977158467601644e-01 -2.988511300620205757e-01 -1.327981914608832525e+00 7.181144236472061237e+00 2.551202507825400811e+00 -8.136046509004928318e-01 -3.743558050322486341e-01 -5.822938599309515073e-01 -5.663163363517657700e+00 -8.324870520772186921e+00
-6.487713146363298655e-01 -2.608777294665731716e-02 8.154371522777541514e-01 -3.586442121839295893e+00 3.717454387063312549e-01 -5.205696488514646170e+00 6.291067175394604583e-01 2.143907703918986662e+00 -4.737014276877392405e+00 -2.806831318636770156e+00
-6.864253474003314537e-01 -1.183453481469038060e+00 3.481989432095063286e+00 -1.003977146320632841e+00 8.270192058837182447e-01 2.680056737537519496e+00 -3.912088368695453511e+00 1.608384912697173652e+00 7.612254059741822232e+00 -2.955982533628406017e+00
-9.821907778547567247e-01 5.006338757239670034e-01 9.115722229199307858e-01 1.418153364832338337e+00 -3.080567532021003085e+00 2.296665892550127097e-01 1.083878877932264784e+00 -1.281734650375891071e+00 -8.872878300731306567e+00 -5.838600409641984790e+00
-1.221841868435194156e+00 3.654327273999231629e-01 -6.796359381997230109e-02 -8.663543213084881067e-01 -6.682700472663238855e-01 1.428317287646099665e+00 1.743107895650774175e+00 -3.112804800824630735e+00 3.870046704667498894e+00 -6.366660873501960971e+00
-1.882250119306941638e+00 1.017293646710828225e+00 2.484414847100700818e+00 -3.140511474176737927e+00 2.964998879808435017e+00 -1.879899300607160040e+00 -6.463213046354927549e-01 -2.695394739109518767e+00 -3.597628376100001191e+00 -6.257803969860582072e+00
3.687954546257760091e-01 2.127520436902255785e+00 -2.294064707036467254e+00 2.499748867848915257e+00 4.431465705174970626e-01 2.732649310306007440e+00 -4.166883605234242838e-01 -3.089352677756132870e+00 6.403185417544859703e+00 -7.456442381756403393e+00
-2.626328485781408428e-01 3.062370121960740210e+00 -4.071795849929171762e-01 -9.438620048516577654e+00 7.484021955766320122e-01 4.290407113656815596e+00 2.356523456950911921e-01 -2.556049619068960332e+00 -6.368382464830839140e+00 -3.405212236720445595e+00
-7.793506428228884619e-01 1.061039943530454055e+00 3.972646068781043871e-02 -2.500490215737482202e+00 3.374909935613249479e-01 -5.193053516907424338e-01 3.311443308687621823e+00 -1.011918127697160719e+00 -8.965097140143884147e+00 -1.164449396803628467e+00
-9.075127354951630920e-01 -5.796839193411107427e-01 1.209313701897303250e-01 -3.496325726056474514e-01 2.009919519154197420e-01 7.284565984456602195e+00 1.673888352743052588e+00 9.528645493634579910e-02 -4.847881166081726256e+00 -2.193140436713499675e+00
-3.347600553839108484e-02 1.907126766791939487e-01 1.775382473831965680e-03 -1.699936982504152150e-02 -6.273600404943546760e-02 -1.295779948646844870e+00 -4.990512501798657352e-01 1.417301779270244144e-01 -2.327952165593321965e+00 -9.197855205268392620e-01
-1.802614175464975765e-01 6.013307692396829829e-03 -2.191706715579439524e-01 2.354614242647275479e-01 -1.814424714726972088e-01 -3.461302274553090808e-02 1.628480641282540886e-01 -1.996626087641582836e-01 -1.189609820681385655e+00 -1.582142782726588259e-01
-2.135627527476459675e-01 2.439476867649807423e-01 -2.013254224966565809e-01 -1.074360071702930852e-01 -8.352582398444929890e-02 -1.375312414829399643e-01 1.406002780209565373e-01 -1.192928055918468788e-01 -1.143469807358676038e-01 -1.943641899155159614e-01
-1.580092081698505901e-01 -1.647694899151242176e-01 -1.257930634251147595e-02 -9.488815270641584587e-02 7.902451695951817623e-02 1.700193856225527544e-01 2.067047140379518200e-01 -2.125478059470023440e-01 -1.837829095705091342e-01 -2.223455140224924742e-01
-2.521304405149936145e-01 8.971234258411081575e-02 6.307896467033363708e-02 -2.865527812081080095e-01 -2.031475394860103867e-01 -2.537452571714757799e-01 -1.750369165795635229e-01 -2.938323623847327593e-01 -2.074629455848844006e-01 -2.468374879132514410e-01
-1.369867816290065987e-01 2.715258133343582680e-01 1.275255881965093874e-01 -6.529404638065090527e-01 -2.323025264735334439e-02 -2.267663623766433822e-01 -6.069337970161847728e-02 4.363748902414424369e-01 -1.521830914918709254e-01 -2.626238575205678272e-01
-1.244835515068153653e-01 3.519567509454030185e-02 -1.151545464737953495e+00 -4.621086169186867210e+00 -1.844574260697912915e-01 -5.157014139668176789e-01 5.849589013458689202e-02 1.214814411369095071e+00 3.514183049879382459e-02 -2.176049876948399631e-01
1.674177290334665780e-01 -1.372801510117744872e-01 -2.072917310000977231e+00 -3.410094333589753113e+00 -3.044284434853142263e-02 -4.819283206890046856e+00 4.034102557741953143e-02 3.525403887389581215e+00 1.913005537505230169e+00 -1.358241324198430799e+00
-1.596904045671908023e-01 -3.844399804145195443e-01 -2.505667467238929191e+00 3.105759350502902638e+00 1.306914066327765189e+00 -5.153048644637967080e+00 -2.040251861544960521e-01 3.246661335878496146e+00 -4.682393745470581070e-01 -7.280372535267274348e-01
2.871836528159508184e-01 -3.870720156280255120e-01 -1.181037479853387584e+00 5.352338008429848415e+00 -1.296741520536790482e+00 -2.466466661380346537e+00 -2.407705044956327534e-01 1.387949296108828889e+00 -1.058414912536772778e+00 8.678743726060731412e-01
-2.077096065094353072e+00 -9.466361945878819517e-01 -2.316319481072823816e-01 1.387422394837973361e+00 -3.122169504066207857e+00 6.456496684630159688e-01 -9.340322906845999196e-01 -2.867490369271288309e+00 1.029166106747009479e+00 -1.247600258898645453e+00
-1.336364617432560298e+00 -2.329664082384583779e+00 1.594165503703621312e+00 1.882509169705871344e+00 4.809535036690702370e+00 4.149592828602893135e+00 -1.208645027647661241e+00 -1.426445075391984840e+00 -6.939152820871578697e+00 -6.758555065081814917e+00
-8.693262785826125771e-01 -4.024382314491719015e-01 -1.949264443978440120e-01 1.409091951754239957e-01 -4.818422757330687034e-01 -4.481332995434312849e+00 4.011980996880207262e-01 -4.098706334024553311e-01 7.846852898059461623e+00 -8.802126578555768077e+00
1.198221264211816739e-01 -2.061452207624083766e-01 2.361042905203820652e+00 7.802114973340765758e-01 -1.476962823883456455e-01 1.763865947317416971e+00 5.753933222558729188e-01 3.069691708419147513e+00 -7.938039298759518303e-01 -2.891497131318654823e+00
-8.014440509253550893e-01 1.903662812943807126e-02 8.611626615417911079e-01 2.891650277421383919e+00 9.552855084957401210e-01 -2.852759826855939984e+00 -1.255578714200924928e+00 -8.452974314606351847e-01 -1.789354033675344624e+00 -2.534625528405295203e+00
-4.339125878472380737e-01 -3.431195681045833279e-01 -7.413954724049021117e-01 6.985812175268197421e+00 -1.966327913042891673e+00 -2.019775408005648032e+00 -1.871685438700302129e+00 -2.206001611431592568e+00 6.040199249730898501e+00 7.521258644595860687e+00
5.119623553653126491e-01 -1.487461501061097202e+00 -1.028067881822098961e+00 -3.201987590700031028e+00 -2.633409306825089669e-01 8.810179791208254230e+00 -1.065679959471714788e-01 -1.536138212343342691e+00 3.013442592729089320e+00 2.677137130445443880e+00
-6.112146040296571048e-01 -7.960434454144575955e-01 -1.683627806215207690e+00 1.768681437589650685e+00 -3.904565691246181025e+00 -7.060429913492995091e+00 1.423888781684707894e+00 1.175257968298357936e+00 3.704125900076576272e+00 3.458218876866050451e+00
-7.019018357115733853e-01 -6.894212245571265107e-01 -1.130439699770123152e+00 1.958528844293346172e+00 -6.237809480606348878e-01 1.646526846311985537e+00 -1.912379415499124935e+00 1.627724294657183490e+00 3.722995747876116202e+00 -5.183130600871228566e-01
-7.430401406826532273e-01 -6.766599960693053806e-01 -2.153793184641677350e+00 1.529028383599548402e+00 -3.447706164856615629e+00 -3.505096926843075611e+00 1.357797429035092041e+00 5.612709410590411840e-01 -3.483954999285916898e+00 6.903081294786840516e+00
-1.101991479881170299e-01 -1.510557834926764098e+00 3.388501648606392358e-01 -3.448492942584799881e-01 6.430295424611096600e-01 -2.150170955285681362e+00 -7.762692588078963229e-01 9.932243951532071513e-01 4.354314635463866878e+00 -1.271232965298084494e+00
1.447554208087238337e+00 1.406657834459827949e-01 3.734059646154230805e-01 5.379619614414088424e-01 9.752913844247268482e-01 3.639415745310404127e+00 -2.029795564041924294e+00 -1.614874104130063381e+00 8.776198469097145072e-01 4.667134318097879486e+00
1.125343392296942469e+00 -1.404901638169984146e+00 -2.784710055935040618e+00 2.609899217169488139e+00 -7.504438371453399093e-01 -2.843526411379367680e+00 5.110250213791918128e-01 -5.092522484944290717e-01 2.496732040425380994e+00 2.458057345380068703e+00
-3.351661282027867950e-02 9.176146903131432442e-01 4.070610053226276781e-01 3.495302957142206068e+00 6.728392822864923684e-01 1.530660458483872999e+00 -8.138604690874223779e-01 2.568921428124834705e+00 -9.926292873862159638e+00 -1.504575647805989735e+00
-8.147715832644830680e-02 9.765464042455391791e-01 2.608957797353380403e+00 2.283766814559051284e+00 1.207287936423577790e-01 -8.499867364435282013e+00 -1.745141789027669699e+00 1.551456329321087679e+00 1.964618962520765511e-01 -1.923363682648505879e+00
1.059448955563418782e+00 1.512892664457085701e+00 -3.155660823414821792e+00 -1.756255645715174118e+00 -2.214849476034395082e+00 4.074283966640610544e+00 -8.308803827518533858e-01 -1.705012281005822139e-01 -1.281294071990970007e+00 -2.887690329035016656e+00
-2.981752951326999135e-01 -1.521992886607814066e+00 -4.455880697175660377e-01 -6.881480566102893270e+00 1.265670883580690020e+00 -4.375486986830841474e+00 -3.811385351181154624e-01 -1.276405830630776173e+00 1.290187536434559412e+00 -4.171553756440227190e+00
-1.898321839629378616e+00 -2.293402776507716956e-01 -8.102273607757120022e-01 -2.190299829601930259e+00 3.628542985192509285e+00 9.130892803514061740e+00 -1.503799274459902247e+00 -9.156245421980631072e-01 1.621497173467125297e+00 -3.556928691878126880e+00
-7.572847308543173561e-01 9.456640423427714603e-02 -3.946143452498223070e-01 2.346122739401939605e-01 1.044576043683972832e+00 -1.542316396870011985e+00 -2.225329607960263578e-02 -4.373579815425349127e-02 -6.620746320101780213e-01 -1.528140089245562994e+00
-2.299543872098446795e-01 1.962111247694601768e-01 2.199174674577919486e-02 -2.883222094365157084e-01 2.150636189149452426e-01 -9.187446220891223869e-02 -4.758620528593376919e-02 -1.575103163179918941e-01 -4.680446551703183466e+00 -1.590808031762383501e-01
4.057476862563413889e-04 2.939264984706486117e-01 -7.357867850171784241e-04 8.420657277011878161e-02 2.811186441706167716e-01 -3.726871075023352464e-02 2.207337483709974069e-01 -1.884006241030072859e-02 1.591803225415639456e-01 -1.942841826230107816e-01
4.729942894800981401e-02 -2.672768781794654380e-01 1.641886686763068814e-01 1.924988689493561944e-02 2.158979690310300348e-01 -7.589259490496272353e-02 1.421484964608260571e-01 2.078516868224557501e-01 -1.250314166961683793e-01 1.677860120291448931e-01
-8.197933155441028408e-02 -4.768700950490312174e-03 2.856879180153246156e-01 2.492403745565963669e-01 1.628025297390116033e-01 2.581506716375597255e-01 -8.133482714120066071e-02 2.852060905167370097e-01 1.177586211979388398e-01 1.474890015228635387e-01
3.847612247076837022e-02 -1.766460682154381290e-01 -2.983512505244628188e-01 -2.203057088222307947e+00 -2.720473381077697095e-01 -1.136491916572330396e+00 -2.436867012745214112e-01 4.212543053059988329e-01 -2.274238830600493477e-01 -2.311560972767838507e-01
6.105832373639763500e-03 -6.816043676958144504e-02 -1.712130413879580981e+00 -2.061128428876262131e+00 -1.134256549167578232e-02 -2.625708692321648385e+00 -1.499476848982415067e-01 1.877405754654448478e+00 -9.202198414660087145e-02 -2.209563779832475205e-01
2.629431356491573890e-02 -6.198849784611354385e-02 -1.381844418561287036e+00 -4.444645922983321285e+00 2.224475428119288001e-02 -4.513986990038342029e+00 -1.247469896278800006e-01 2.949585601937638302e+00 -2.582303895614928013e-01 -2.184619041533055750e+00
-2.586535055151036322e-01 -2.981236430211368638e-01 -5.296986770521661114e-02 -2.829022443802546860e-01 1.370610854348021768e+00 -1.124065940553185872e+00 -3.535143744671512267e-01 6.156556054228280450e-01 1.697545158215341132e-02 1.155092694206105941e+00
5.986107502806092828e-02 -1.170419308680634707e+00 3.454020584010588646e+00 1.264496546655142550e+00 -1.566658895731119383e+00 -1.077268755668294098e+01 -8.161471041024908057e-01 2.909024563058348889e-01 -5.682295803971801007e+00 7.038709548722899001e-01
-7.776615091477137032e-01 -1.383841689603410918e+00 -5.042451814200521465e-01 -1.749007131606929555e+00 -8.328810827162302921e-03 -3.466810059379588083e+00 -1.148851083393166217e+00 1.740804517194229684e+00 6.702088299385295045e+00 -4.299856320589636738e+00
1.293618317681003438e-01 -3.545461369330413781e-01 -4.251096119779019133e+00 -1.697448580084950365e+00 2.162967417769112721e+00 5.723280570936684075e-01 -1.065372344866144516e-01 -1.966814625431614338e-01 2.624610345481963591e-01 -1.169505205173424933e+00
-2.447694256797910972e-02 -8.335084705083894985e-02 -4.044741811050910130e+00 1.695078971300866044e+00 -8.536938695562259483e-01 -8.383150600494151394e-01 -3.183855619346140919e-01 7.289065449224999549e-01 -3.976325146259355847e+00 -2.974659234326137991e+00
-9.587186743596525229e-01 -5.112870025534678176e-01 6.874280646975929887e-01 -6.708282287872866512e-01 1.133420508935743420e+00 5.010472566858613419e+00 -3.237462269580384522e+00 2.954581566995934772e+00 -9.906140718528535505e-01 -3.235517240864315802e+00
-4.120606276449167993e-02 -1.124891391289627229e+00 7.094811996987002711e-01 -9.089955828408738725e+00 -2.881559926609555067e+00 -2.157414859347899672e+00 -1.839404764858347807e-01 5.379709833477001268e+00 3.948561380109230079e+00 3.326694839857159192e+00
-3.019747735291895552e-01 -1.296696917781587910e+00 1.248527002716375733e+00 -1.656969423466291058e+00 -4.220626499608781668e-01 -5.328972337674799942e-01 -1.083020706846985481e-01 2.657904789322881545e+00 -9.662320590385435892e+00 1.008953090940837960e+00
-5.230112833020550411e-02 -2.190703465219641988e+00 3.829678502939717788e+00 1.268508720375435495e+00 -1.611139942722702667e+00 -2.825867731560281371e+00 -4.129729460432312038e+00 -3.143765838474888330e+00 3.255428848467120773e+00 9.171129160878530584e-01
-7.308994735331394432e-01 -2.172820588654080787e+00 1.587400311180013679e+00 -1.053295730403113417e+00 -2.638453235668340113e+00 1.069543250511027832e+00 -1.622168117272898336e+00 -7.849156851282451663e-01 -4.713935727845825596e+00 1.001132058673143632e+01
8.970701858883587398e-01 -2.083824544038147542e-01 2.643723235562733365e+00 4.533191177607600153e+00 -4.321621653643576977e+00 -1.023958851356252087e+00 -1.554356199371777825e+00 1.667771088820559910e+00 2.642176593771077719e+00 1.757132147269909517e+00
6.737914556085494722e-01 -1.344812952983687193e+00 -1.007337154637750309e+00 -1.886848302391812560e+00 -8.133293114196995521e-01 -2.799137731378932958e+00 4.990086702523528484e-01 -3.015277511500149110e+00 8.561328716061790800e+00 3.500055824986157305e+00
1.285820920188954219e-01 -3.021022022453976330e-01 -2.369760150384889741e+00 3.929118350871720011e+00 -5.626588564399581660e-01 3.009252449205668256e-01 -3.392522183484432574e+00 1.034171674152651654e+00 -4.021971980329619001e+00 2.045068019374296497e+00
6.666774278441975898e-01 -6.322228538643670515e-01 4.963005588565907455e-01 2.286167655238815488e-01 -1.299520940253736878e+00 -2.609065213205535194e+00 -1.681450974672868526e+00 1.448121354886739098e+00 -9.703604311872902066e-01 2.780329191155118451e+00
2.033532877827906926e+00 9.626525635826697069e-01 -7.752068839816828039e-02 -1.705282599641819274e+00 3.956300943281259030e-01 3.391284247379045880e+00 -2.889007575079797885e+00 -8.076452740817292586e-01 -5.452940899365410488e+00 -5.752069316431676960e+00
1.070108740114493528e+00 -1.515502300142812508e-01 -2.494584141845137992e+00 -6.194253420372628050e+00 -7.007336496510432333e-01 3.144858629390871130e+00 -2.647399061359276828e+00 8.330192918181220652e-01 9.222426385009057981e+00 7.227640162599932694e+00
-1.286175380745669283e+00 -5.343935194125094545e-01 3.124196346956321646e-01 -4.509392861922799867e+00 1.019917059637609480e+00 6.966069357998685874e+00 -1.856950334827267568e-01 -2.044702521495500580e-01 9.239085677335362234e+00 -4.085604117693618420e+00
-3.753487952167217090e-02 6.924950428468843455e-01 -3.709489573576263854e+00 3.822039430672708349e+00 -1.588764793757580396e+00 -4.232124708521590506e+00 -1.973451670587088147e+00 9.297094003302441845e-01 -6.774060261893447787e+00 1.677388205028193635e+00
1.618502103323076480e-01 -6.775571237871751418e-01 -2.298169877067390399e+00 -6.828531963064521371e-02 -3.840463282041710613e-01 3.757299174795746932e+00 5.569261789192685441e-01 1.121907711051949530e+00 4.456018615221761792e+00 1.893695332788418284e+00
-1.424555689225480037e+00 -5.065213449198862072e-01 -9.252485142999556933e-01 -7.413602835224282650e+00 -5.594954843678001666e-02 1.138988206302897765e+01 1.659924656082194971e+00 -4.798843943196682282e-01 1.535963666720894238e-01 -3.157482305768633868e+00
-1.658599912799942455e+00 -3.784946576927720185e-01 -3.672453565014910382e-01 -1.086182011678302972e+00 1.174305849089589682e+00 4.137433435733244735e+00 -5.036594088321697527e-01 -3.987945896333892071e-01 -4.388642179759244755e+00 -1.161363989085513193e+00
-6.256737308692298383e-01 -1.334294022211162944e-01 1.268875873829579115e-01 6.945223244992998479e-02 -1.460710921973602083e+00 5.097498105336218721e+00 1.481088299110742690e-01 -1.586456519729062542e-02 -2.993217565176071737e+00 -2.886366320846961986e-01
-6.181455510909344975e-02 2.085150700337718432e-01 1.800783453553994606e-02 2.546335514565717939e-01 2.293156260081206654e-01 1.274272295534847332e-01 -6.745442216023628257e-02 3.735412513612978991e-03 -1.266459192790519439e-01 6.485252739524743903e-02
-1.312510079599895352e-01 2.772501695684939649e-01 2.602447108074006921e-01 1.619562155548777138e-01 1.238765679274498321e-01 1.294168463498004407e-01 2.817406550702029056e-01 -9.495687206909436684e-02 1.522208177403372442e-01 -2.284539724137627514e-01
-1.365018103664937255e-01 -6.452582134276765857e-02 1.681241123612702837e-01 -1.189790783807209706e-03 -1.912560983736796283e-01 -2.908865725373814826e-01 -2.679485307264710681e-01 -1.441263210010257367e-03 1.430530742634716912e-01 1.156048970541864729e-01
5.422552789821838415e-02 7.701498513453652883e-02 -2.902154111179156004e-02 -9.175387674223670076e-02 2.020906043446419331e-01 -1.382040837709809233e+00 -2.856332196654228217e-01 1.596888924246154251e-01 -1.165093864453803363e-02 -3.934460043756031755e-01
-1.623506081539222434e-01 -1.547305936315392094e-01 -1.449617637138694848e+00 5.629023713928352990e+00 2.674665056354320058e-01 -1.092158869493777384e+00 -3.082554343578994827e-01 4.630577520332959662e-02 1.911673507714036768e-01 -4.283408885782642450e-01
-6.961567928769880620e-01 -2.093463308236198639e-02 1.426069270573572245e-01 -4.228302916606230255e-01 4.153664539246440524e-01 -1.440175795512032675e+00 -4.787230217750341743e-01 -6.850792036682828989e-01 -9.113723690807580269e-01 -9.255803071020052286e-01
-1.608046197247076647e-01 -7.174915617348693875e-01 -1.485940015770511824e+00 3.736768208399643854e+00 -2.428292191755665463e-01 2.010533153304093101e+00 -1.749114809382327884e+00 9.817618916965895615e-01 1.324383030439686637e+00 -8.164434424005362345e-02
3.168644239555050701e-01 -1.268478686362688457e+00 5.468157812407286045e-01 -1.392612685142192275e+00 -3.221494595666441807e+00 9.665002274916849601e-01 -2.151181388673240491e+00 -4.385709500847976283e-01 -3.067598554893464780e-01 -1.797024378828147695e+00
9.100660779394829092e-01 -1.081369995553977947e+00 7.931029468494918966e-01 1.002611597424143852e+00 8.643390327748834423e-01 2.811242748786393353e-01 -1.764273684296519207e+00 3.106679319981076937e+00 1.167902242787232758e+01 -4.673387313667249465e+00
-3.113300070047903545e-01 -7.056915509299576117e-01 9.579332174012560319e-01 2.902050188169154943e+00 -1.273163863226669523e+00 -4.726662446552136743e-01 -9.074981079577291165e-01 -1.099682501119597422e+00 -4.095608831148317641e+00 -5.035491871497494998e-01
-3.917468140760629325e-01 3.377682003711572345e-01 -6.790677471584394276e-02 -4.417727113886364521e+00 -1.674458481969454127e-02 7.990842846661339038e-02 -1.520775568419415746e+00 3.838142411726927605e+00 2.101251533030785268e+00 -1.256938456045688879e+00
-2.937157812583482963e-01 -5.058551855080450910e-01 2.838693006087481763e+00 8.065379462979782588e+00 4.306627240897524800e-01 -3.896310121389553238e+00 2.729651074838118641e-01 -3.805951415718201503e+00 -3.587767749263226946e+00 1.974949812440899066e+00
-2.700814039508507847e-01 -1.903405547977494949e+00 2.564392039649820099e+00 -5.219938835245899078e+00 -1.226935236552196606e+00 5.584713658704024475e+00 -7.348084484959263030e-01 7.694773843087965304e-02 -1.723576434760490272e+00 -2.032202135698279566e+00
1.204240318531184517e+00 -2.807793925645545308e-01 -1.959238396539981331e+00 1.019655979601333584e+00 7.854167536511031944e-01 -2.106206422071113415e+00 -1.091226571173254944e+00 5.363738989458808337e-01 4.068694188297158121e+00 -2.628643349486741165e-01
-2.235272780955410710e-02 1.763336461513333342e+00 4.038376351058272640e-01 6.929099821675475113e+00 -2.697538209134273224e+00 -4.735289615394988161e+00 -5.121777601155972803e+00 -2.324392320166229098e+00 -7.185132349258513074e+00 2.258387032428434971e+00
-9.011266982584322793e-01 -9.654659853104310407e-01 -2.033902549944190508e+00 -4.635744698076711856e+00 -5.620789318842849269e-01 7.069463923667652416e+00 -1.618241559985024391e+00 1.267675828590856257e+00 -3.222691750182287151e-01 -1.004728887106409729e-02
1.885851912121618290e-01 6.255147053777465604e-02 -1.675787391223642508e+00 4.486405824271020748e+00 -1.426314499197763652e+00 -1.065507986830160903e+01 1.784931036643961466e+00 4.748706961866089316e-01 -6.754886200670821239e+00 5.014565926065029267e+00
1.741164808932009089e+00 -8.979934495181285392e-01 -9.803122012177114541e-01 -8.492972587835447840e-01 -1.518926796706389304e+00 6.537656840891629351e+00 -2.366166304642986162e+00 -1.537299848793316048e+00 -3.417685658917972269e+00 5.329683138831917688e+00
-1.382663344477282896e-01 8.006468075726735911e-02 -1.791696197443898075e+00 2.661259061826563688e+00 -8.594025540690319875e-01 -1.434744401490636534e+00 -2.977234205072849527e+00 -1.511888573105166111e+00 -3.795885123686455920e+00 -6.347773632218971507e-01
-2.085660934720346749e+00 -6.547201440092242919e-03 1.604603968289518567e+00 -4.875033816357530192e+00 9.113187575370629290e-02 1.184962322086402509e+00 -2.612694269508964773e+00 2.167543907157949423e+00 7.220727796726542635e-01 9.852164919064696491e-01
5.208333326308769440e-01 -1.381568831793833052e+00 2.650696250962591982e+00 3.062393014718808981e+00 3.930693547315700087e-02 -7.512933906588962429e+00 -1.254428149407458282e+00 -1.680534222296724112e+00 9.067643081407304351e+00 1.236640325488462144e+00
3.687622621330788331e-01 -4.052152984987793527e-01 1.032935741346416858e-01 1.768878771667380168e+00 9.779101202375248825e-01 -3.713450759359018249e+00 -4.250242465578590867e+00 3.511895478332523357e+00 -1.014884299521741973e+00 -2.116776473111833035e+00
8.530264135357410460e-01 8.296063868132197427e-03 -3.198463974010964384e-01 3.941298557624471899e-01 -4.688631942897725224e-02 3.121187236120767317e+00 -3.028635510514448015e+00 -2.235172379256305852e+00 -8.444142480593118449e+00 1.378148558157900050e+00
-4.338790803769377868e-01 1.495304516734018430e-01 -3.082578181488552005e+00 4.774958105815040987e+00 -1.870004145933841677e+00 2.744000771862404875e+00 -5.216150691064272316e+00 9.632485283042604429e-01 5.282379049760073997e+00 1.712258211222896342e+00
7.252942745013764014e-01 -8.765292108486278932e-01 -2.156926601462520132e+00 -3.315547895832667180e+00 -2.715249045235824443e+00 2.737736306000228659e+00 -1.544769996219458985e+00 1.861879963556924089e+00 3.799858400311171280e+00 1.302630570068796345e+00
-3.402481935905752874e-01 -3.353728496430057882e-01 -9.119974780293893524e-01 -8.779467227082630387e+00 -2.358309884960860359e+00 -4.567538457977219579e+00 1.147218174690516124e+00 -5.284917405644978805e-02 -1.831226018785941489e+00 -3.099971846518405627e+00
-1.017240229897854231e+00 -5.948827984469936547e-01 -8.090597087818389710e-01 -1.621001656566319893e+00 5.046129820038017799e-01 2.137679211028459481e+00 -1.711218044477808564e-01 -1.297312836804663250e-01 -7.792788772950402176e+00 -6.532685081212277201e-01
-5.873280713215838222e-01 -1.421278273486812072e-01 -6.038151920672363282e-02 -8.380928550251723341e-02 -2.335081224895115271e-01 -7.829693922012005203e+00 -4.080755248635802301e-01 2.865388216322994341e-01 8.145100893251173702e-01 3.806215670088430869e-03
2.541589688390122892e-01 2.108926137532986522e-01 3.543299077629069593e-04 -8.386568262076243840e-02 -1.722510578283572569e-01 -1.414860277627777441e-02 -2.649573665445326687e-01 -2.144117987064708686e-01 -1.479082735999664999e-01 -1.613544105197515510e-01
1.863733343076833249e-01 -1.158452974842837380e-01 -6.465223260002928019e-03 7.255019657837818992e-02 -2.302192263928510285e-01 -2.288935587683681439e-01 -1.531275993843117522e-02 4.431293187198859229e-02 9.539558732565145416e-02 1.376315102586498917e-01
-2.994022234640322799e-01 1.784788924701231627e-01 5.611315754895157548e-02 7.081191573987966059e-02 -2.695845511225993807e-01 -2.375299538396057619e-01 2.066780949510276799e-01 7.642464520107368209e-01 9.016428276897292537e-02 -9.483504167048456557e-02
2.688414605724367967e-01 -4.665452993046304009e-02 -2.963285032393870311e-01 -3.938476662873566236e-01 9.289352589761623591e-02 -9.618871501528128420e-02 2.300382435816847315e-01 -1.582588087881492411e-01 2.037145761859333049e-01 2.031070148103810147e-01
-2.776446637533806494e-01 -1.584174119652632939e-01 -8.418294720593237912e-01 5.999246392422464602e+00 -3.997125816265068576e-01 -2.037398915263851085e-01 -5.208957629459733951e-01 -1.541883146093566026e+00 -3.209297321737213937e-01 2.938268583769390485e+00
-7.162890745169812057e-01 -1.361643440023105889e-01 8.356641656145289421e-01 7.364224630956925921e-01 -2.833044104525942464e-01 1.433268160042806549e-01 -1.725482442840282071e-01 -3.158422616613826062e+00 5.551672832267626756e-01 -2.106416691107764194e-01
-5.485614155962603711e-02 -7.013588186739683206e-01 -1.681333709504124307e+00 -1.255226512553320184e+00 -8.582474067061531819e-01 -3.202680859980588934e+00 -1.963118470939220206e+00 2.669733865188944399e+00 4.499611049717811895e+00 -3.066601379485756951e+00
2.784370110585239200e-01 -8.267700720845032603e-01 -4.729654359609144265e+00 7.990669704024327302e+00 -1.412848686338914916e+00 -2.685279356315243504e+00 -1.610212332235144039e+00 -8.477610094476670799e-01 1.415798035103201791e+00 -5.678775068420738315e-02
2.912323353829933126e-01 -1.055234703608217250e+00 1.660004168940183433e-01 -4.454813510623225170e+00 1.025346364046347825e+00 1.680377572687850929e+00 3.377603730140427141e-01 -3.121677839112102504e+00 -1.264933401067558449e+01 -2.410330737428831860e+00
-7.073408248649162289e-01 -1.285511306564542711e+00 -3.242754268839228793e+00 -2.731308585664556254e+00 -2.306968661388875574e+00 -3.168719695988969853e+00 -1.427910155558456129e-01 3.444407829937537802e+00 8.420964261159202380e+00 2.818502765637143526e+00
7.678952289443838897e-01 -2.475687594684883308e-01 -4.468034635394626974e+00 6.012699574804738489e+00 1.044787772066429365e+00 -2.044680798323690318e-01 -4.852181202381853353e-01 1.591211206572928027e+00 1.000990353532527166e+01 6.369125161653865774e-01
5.604976078094625613e-02 1.295046985287243713e+00 1.225643685317964415e+00 -3.544820930724459362e+00 1.127435997121007727e+00 -6.211250529644068763e+00 7.204793600678858212e-01 -1.309237621910145144e+00 -2.090427800625497490e+00 -3.317992264057701313e+00
-1.011153690801637639e+00 -5.185764601396073425e-01 -1.340808344463660262e+00 -8.214621662125525248e+00 -2.479191738351370411e+00 8.147557838889174064e+00 1.579813395808318699e+00 1.785219935133961044e+00 7.590022539614395214e+00 -2.054958729996660516e+00
4.053559330445859477e-01 6.425601023513023424e-01 1.001591961991331381e+00 -4.920347043249041263e+00 -1.968470343730845507e+00 -1.716742413468030914e+00 1.077402139146627302e+00 4.511624532044647751e+00 -2.758724726732961763e+00 -8.536437051637440376e+00
-1.744672839405356779e+00 8.383821429505555756e-02 2.485010931797970724e+00 -7.662509531023031784e+00 -2.068716280472568059e+00 -3.184756234390268226e+00 1.282810088152424255e+00 -6.090136401524082199e-01 1.474589138730576998e+01 1.875358658712096727e+00
-5.987154078792111811e-01 1.572106684746204186e+00 8.651595032321766077e-01 1.992264264428688314e+00 -4.911952584451082515e+00 -3.594169060610838073e+00 6.108557388205837491e-02 4.008814391658996001e+00 -4.146341256713488299e-01 -4.283576126931741612e+00
1.000742251977324138e+00 1.324578656564221468e+00 1.780282226091522979e-02 -1.743863684797331004e-02 6.097222600867373554e-01 4.053842842491094167e+00 -2.500023564554797240e+00 3.189480118755967375e-01 -4.327796242736032362e+00 1.235711904418364870e+00
2.039936210955813900e-01 2.901669381134415193e-01 3.105960251413930173e+00 2.255949573890526416e+00 3.991119315311566496e-01 -1.017115211513357664e+01 -3.155202340739932332e+00 -5.914330241543335198e-01 -1.794267840752686194e+00 -1.623307016778082090e+00
-5.027003531114617729e-01 -2.529813789509567368e-01 2.081741493716869673e+00 -1.697238272601224729e-01 -2.347399632315995799e+00 4.011918912507129065e+00 -4.447901962682957233e+00 1.113421238325881912e+00 4.430096355169595768e+00 -1.481492624703340200e+00
1.918681303382405945e+00 -3.517718637124529479e-01 -6.539448378332137768e-01 7.132166599439537791e+00 9.710281427722913250e-01 -5.915954427994387643e+00 -2.736054714732429005e+00 1.464956639175961861e+00 2.986165635639561611e+00 -1.797545282758453045e+00
1.953003488612893079e+00 -5.661530888173154086e-01 3.787736043805398634e-01 -4.401903087894301070e-01 -1.585565790664045238e-02 1.126608105935589776e+01 -4.513967842024622090e-01 2.723036868706773639e+00 -6.640804756279971244e+00 -1.625508265282636700e+00
-4.433225402119960190e-01 -2.129797470179477514e+00 -8.961965985261868273e-01 4.425705745716898676e+00 6.347688398391109210e-01 -2.682416949070578482e+00 -5.279095575641529203e-01 1.681219385133423172e+00 1.867682263318698688e+00 -4.077856569580963431e+00
-4.496160773136441691e-01 -1.951009146698932106e+00 -1.489935254044940205e+00 -2.170513126457271014e+00 1.667779363987029306e+00 -4.063420097742111992e+00 8.170784311342988993e-01 3.740938832599293162e-01 1.900871029158675896e+01 5.694995881604607568e-01
4.645791606545831565e-01 -8.622532764790158399e-01 -2.722314054933530958e+00 8.822182597328049880e+00 1.404088023398038176e+00 -1.051798625426308087e+00 -3.127364862791140343e+00 -2.196966798699184764e-02 3.814311116534318202e+00 -3.612289394290112199e+00
4.501647376800936851e-01 -1.031490589010776837e+00 -1.470934512990969889e+00 -6.042110949747607762e+00 -1.962044127886111156e+00 8.202822336993708774e+00 -2.213867704711880435e+00 -3.360405128832810728e-01 4.760301072428263502e-01 -3.944888510820081073e+00
7.590982038550353472e-01 -9.522887498842655951e-01 -2.958822709077172597e+00 -4.179889255298256501e+00 -3.257251586396066934e+00 6.457650981458114003e+00 -1.372588940225893506e+00 -5.652728434679343827e-01 -1.039416591623498753e+00 -3.807881084875961442e+00
-6.269664146113853587e-01 -4.819416744183606105e-01 -1.082520963376139456e+00 -9.636810973556482196e-01 -2.156283476731633453e+00 1.082275467742177888e+01 -1.354991845535321149e+00 -4.266420741653120796e-01 4.309994182540594743e+00 -9.033389292961203632e-01
-1.526072767577185685e-02 -2.178725059214621784e-01 -2.866021567127763348e-02 -1.242358526540797981e-01 -2.736755986187562883e-01 -8.869473368324712226e+00 -1.122014424851613401e-01 -2.415226978848057648e-01 5.680970496982471474e-01 8.202769955556910020e-03
1.817000409160245411e-01 -4.550885385799613436e-02 -2.396774787383615379e-02 3.311850674857597099e-02 1.386024701618476795e-02 -2.771471278196785404e-01 7.336357383419234157e-02 -1.950081849938592460e-01 -2.144456591816631952e-01 1.808576202880074479e-02
-2.871201812178283963e-01 -5.834895638786752325e-02 1.102005096269146334e-01 -5.766042081598224400e-02 -2.043335123411849086e-01 -5.337426625968516580e-02 -1.593206029053749195e-01 5.760104963081236207e-02 -2.562644716151692981e-01 -1.864014063212021677e-02
-8.567874484713283723e-02 1.822681480068016335e-01 -1.584128476799867569e-01 -2.300817170237241527e-01 2.058555565569913370e-01 -2.269056699273689914e-01 4.289336953779937511e-02 2.261386568323961455e-01 -1.127125172098206174e-01 -4.156824653906944222e-01
-1.584888443501996091e-01 -1.001734257282500262e-01 1.780707914857741492e-01 1.688922309138539413e-01 -1.921733151908339154e-02 2.793145340090962825e-01 1.486804391914262613e-01 4.597705500876933526e-01 1.674304484790833936e-02 -1.678935822874487171e-01
1.605373011195960764e-01 -3.536509487399210339e-01 -3.980745672238925614e-01 3.846094565834978773e-01 -8.665926954226310652e-02 -1.644617351367255953e+00 -2.772765857426129910e-01 -7.593401106600821127e-01 -2.881682526982039416e+00 3.271465130329268334e+00
-3.230689622793834759e-01 -3.012760618586497463e-01 2.078908680000313147e-02 -2.580197285330848800e+00 -1.112913076683960112e-01 -1.482353418986754434e+00 -3.887689422018962282e-01 -5.128986743908108270e-01 -9.536112335813891061e-01 1.786936873209905130e+00
-8.852601144108234177e-01 -7.033902722018092746e-01 4.740864770899015035e+00 -5.586909623232754640e+00 1.441221922346415774e+00 -3.700354551631785505e+00 -2.010677175299962371e+00 4.214866967782748830e+00 1.414489933280763445e+00 -1.821287186496912458e+00
-1.391154053708694160e+00 -3.698922336764762786e-01 3.110076210299810739e+00 2.964847448105945027e-01 -1.676126617494648308e+00 -7.513051197000757409e-01 -3.686404654157277028e-02 5.555445911218512833e-01 -9.890894589784201330e+00 7.140121815682368478e+00
-1.225510740919833808e+00 -7.117774645606771422e-01 2.155672389369889697e+00 -5.131414234547008846e+00 -7.302643724904277489e-01 5.245793417657647062e-01 -1.748533871368553316e-01 9.317058905535222646e-01 2.360916440619111878e+00 -2.866261394581449018e+00
1.313605396739891962e-01 -7.860304869261702798e-01 -9.647719533100649336e-01 2.453719280328998664e+00 -8.317091989209739467e-01 4.005006948147437740e+00 5.655063815531291560e-02 1.249068331827800415e+00 -2.529617193684302379e+00 3.187077643619186773e+00
-6.310945054088126227e-01 -1.341336833210586388e+00 6.812234453234533582e-01 -4.828488676479155473e+00 1.095600371607266865e+00 -3.176351432061679247e-01 -1.535202701008514525e+00 -1.310976543754538426e-02 5.004734032495740337e+00 -4.945752754999318768e+00
1.461764794064366324e-01 -1.009720434831302471e+00 1.358944241063524849e+00 4.807162627901663932e+00 -2.125819025783177274e+00 -1.014038807577786638e+00 -1.805537057388055366e+00 7.037386278874642187e-01 3.606791170493590215e+00 9.072814647091412610e+00
5.566770579456117307e-01 -4.126942592317853209e-01 -5.701252715024800466e-01 2.667269516480773817e+00 5.328488519092529074e+00 -1.984293458281244593e+00 -2.975588053870108940e+00 -2.441615619608562326e+00 7.865831786657940583e+00 1.660641760431222025e+00
3.783047850560989911e-01 8.370723433502909039e-01 -3.298443387281416506e+00 1.069490844786364248e+00 2.899026163437165238e+00 5.385806637294636268e+00 -2.173141458839497719e+00 -2.059451992986682356e+00 2.534486961066741983e+00 5.632507486378668382e+00
-2.309523563834538606e+00 5.560081738431377207e-01 -1.617738864661538045e+00 6.989526471463152202e-01 -3.156861513317066326e+00 1.615612055303214945e+00 2.101601433045133138e+00 3.034567797717942383e+00 -7.831849726181633997e+00 2.460144609286961881e+00
-8.826658590067053556e-01 2.301495487172015242e+00 -1.702201949307064366e+00 2.681171415460188889e+00 -2.252289335938681525e+00 -6.691141700901406253e-01 -3.628468621219859358e+00 -2.008444653297600802e+00 -3.559038785005463446e+00 -4.556970359758287792e+00
9.349991318566197585e-01 5.521467152973462689e-01 1.669611424106666409e+00 2.274642742864354972e+00 3.859813054668341792e+00 -8.736941091135970172e-01 -1.179067666384831181e+00 7.079515346229512396e+00 -4.857565185959972887e+00 -2.821511806476761031e+00
-1.217763271014036253e+00 4.481877733548971232e-01 1.489673591076109194e+00 1.113464490913052440e+00 -4.418216522043885153e-01 -1.277811861876907873e+00 3.366393640596765380e-01 4.119908120851119904e+00 -1.509715688850270521e+00 -1.167358837073337163e+01
4.752534203150238223e-01 4.144319419546145244e-01 2.667394097823463373e-01 5.892144451583440024e+00 6.276416687785253412e-01 -1.056082354382671440e+01 -1.833652657405219877e+00 -4.715074946010101797e+00 5.767769629808834786e+00 3.531477137470416139e+00
2.551855683987314549e+00 1.490994965530016092e+00 -6.211977599083429169e-01 5.075617640712479783e-01 -3.266375008806104319e+00 -5.224958836630384518e+00 -2.445407887447559325e+00 1.839528525545609305e+00 -6.077430179713845249e+00 -1.426370245227272404e+00
1.107684427456310683e+00 -4.229897269072597776e-01 -8.038606849618787908e-01 1.715153221463172173e+00 1.022361621195979620e+00 -7.372787210305467021e+00 1.377799589989309403e+00 -2.707735258387586885e-01 3.547367155619295609e+00 -4.435004056312256360e+00
-3.908860242313252353e-01 -2.091980608361082794e+00 6.940596219563048841e-01 3.984946075772253238e+00 -2.036829251455218870e+00 7.261760873451699183e-01 2.387035735650530732e+00 1.425796344818642147e+00 -5.200114108952721637e+00 -5.621181086114520831e+00
-1.226122772063374500e+00 -9.277304367215091219e-01 7.940452140529092873e-01 -3.944562275935881601e+00 2.414021435575423258e+00 2.586803269503911373e+00 -1.452577220089338983e+00 3.595707784651582806e-01 -2.504830046613671257e+00 -1.799687255717008050e+00
6.655309257338283269e-01 4.846878210682975530e-02 6.267413842596982754e-01 -1.545661270342027382e+00 2.354574196651180618e+00 2.781661517555071406e+00 -2.182258989630192048e+00 -9.914573642054194114e-01 -1.445572858782022152e+01 -3.043185579218163461e+00
1.599667658409337667e+00 -3.415767479108188787e-01 7.760780404382210396e-01 -3.497395819754865798e+00 -1.003260390434220772e+00 -1.657457614824302539e+00 -2.303992144469340531e+00 -1.302599872765968225e+00 1.202943578826504023e+01 -4.023189019556927981e+00
7.532808677863540581e-01 -7.184691708305518398e-01 -2.012912226100351365e+00 -2.131669917022525507e+00 -2.612600143188847923e+00 7.719580537608749182e+00 -8.690135653254964510e-01 -8.170020512087823317e-01 4.147738641359214107e+00 -4.221917614787462192e+00
-2.155123055605159821e-01 -2.585982740530354818e-01 -1.913306794004625000e-01 -6.388147176066583111e-01 -9.337121190336106213e-01 1.726843110692727734e+01 2.878080644695585333e-01 -1.588531236842800176e+00 -6.249527389123690213e-01 -1.539829962199848801e+00
-5.741196531985874874e-01 -5.061831353212501439e-01 6.428674739096573720e-02 2.698554584972905901e-01 -5.324198339185581830e-02 2.433896656450298956e-01 -3.656896009262331493e-01 -1.335588405512347920e+00 -1.562566047629757371e+00 1.343144246301471445e-01
5.039780645915292734e-02 -1.105984024342160366e-02 9.089169028911331383e-02 8.550875249588590910e-02 1.716913132019090016e-01 5.212636695820843658e-02 -6.093623263089700814e-02 -2.120583077891859403e-01 5.843675837162853881e-02 6.061497732672854744e-02
-6.379852023266377459e-02 3.213315644698677698e-02 9.045270699218704857e-02 1.879101589269958628e-01 -4.978594863279839355e-02 -1.477838302584439101e-01 -6.899527588884118989e-02 2.292142123790276709e-01 2.897058287656528175e-01 2.127291747166203950e-01
1.627578272206209320e-02 -9.308515773488204581e-02 9.394779845015760467e-02 2.803056260448330561e-01 2.975248855334866049e-01 1.108049810832943960e-01 2.985459271166079342e-01 -1.025607779732870262e-01 1.966850719052204433e-02 -3.902935088082482018e-03
1.528445116829794670e-01 -8.962570970596314690e-02 1.994739550627148139e-01 1.934685041865476185e+00 -3.330258037531114157e-02 -2.280504950022594901e-01 -1.819081416796145545e-01 1.424959403428038840e-01 -5.255286789691016036e-02 -1.623015657054980854e-01
-1.349800429612175723e-01 1.575997062454682074e-01 -2.806691380174364259e-03 6.041575325838044463e-02 -6.025425020074837157e-02 -2.862921493598883593e+00 2.247988622280136517e-01 1.069642588004715567e-01 -1.202901223558991362e+01 2.227582940672497180e+00
-8.889884644710439598e-01 -3.019829564234600694e-01 3.957819487153795834e-01 -5.785270654853449379e-01 1.449528790789167410e-01 -3.338266830296809928e-01 7.368705559352601853e-01 -1.547315425198591221e+00 3.238489752330000027e+00 2.159270908526957022e+00
-1.005036558128819646e+00 1.964871028754008875e-01 1.685803344653194369e+00 1.642699113277698242e+00 -1.127012916012369192e+00 -6.030599553212412367e+00 -1.898154482298540557e+00 3.819077198578582077e+00 8.212998220111799696e+00 -4.285922092185963983e+00
-2.729669092449793499e-01 -6.369804887356489420e-01 -5.192342811630351607e-01 -5.043792926535891397e+00 -2.270415995032388334e+00 4.700852089988148741e+00 -1.226298990816828471e+00 2.390072850062259668e+00 6.957740651832530432e+00 -1.697215819464837239e+00
2.215868486012815275e-01 -6.153941793111853409e-01 8.285136414810507777e-01 -1.854221304306553186e+00 5.169889923040726920e-02 -3.160536558957084630e+00 3.709575744154852694e-02 3.621063889130462510e-01 5.183903746719551009e+00 -9.921579776788216343e-01
8.216191175347895559e-01 -7.892404418874729988e-01 1.256847672959295892e+00 -9.169475949468264275e+00 -4.677628694355584038e+00 -1.093206126902359188e+00 -2.001739464900428089e+00 -1.407337023544785737e-01 4.443290105623297848e+00 5.726513406422782282e+00
-2.305145103846168553e+00 -7.080556419883903274e-01 -1.448919922952280448e+00 -7.388266268367175371e+00 -3.028305758298213135e+00 8.469581060066353473e+00 1.541127089369412895e+00 1.510779567740566876e+00 -1.637759225507801286e+00 4.840131969607806006e-01
3.982989844867801388e-01 -1.929824465697301150e+00 -1.340215859424110478e+00 -6.234460125430542732e+00 6.464593002560752311e-01 -4.007764570309578112e+00 7.440822966937736815e-01 6.864349733480192839e-01 4.520298221221026758e+00 1.556415151646790118e+00
2.630905491695445519e-02 -2.385528413851763396e+00 -4.425403765914445842e+00 -3.812979490157665907e+00 -2.448695401451712605e+00 1.746919488816655264e+00 -2.453907923442320005e+00 4.075392234010026371e+00 -2.156246591907335031e+00 5.938987422827563201e+00
2.216296346210864243e-01 2.180164806397280053e-01 -2.548264520146886092e+00 -1.800242135025684753e-01 1.045940591765640804e+00 -1.373179199128864880e+00 2.191828854533489856e+00 -7.882936355876770662e-01 -6.433402604592173724e+00 -1.309013526850274722e+00
-1.745421357030214171e+00 -1.040428643326043900e+00 1.509277399799509256e+00 3.000264946304845637e+00 -1.079916391647433915e+00 -2.579253780467770429e+00 -1.731167302459691193e+00 3.640453380602992617e-02 1.466064177784551426e+01 2.750015843769498147e+00
-1.096195506495484251e+00 3.158101898647325267e-01 -3.633768337011895611e-01 -2.103435676417290345e+00 -3.482881535997149225e+00 -2.085801523026655779e-01 -2.086434155878259533e-01 1.420843753266711529e+00 7.462968956465998005e+00 3.457972212171479764e+00
-2.957534072650455759e+00 1.287934832291614873e+00 -7.936558344910580320e-01 4.906522690890538385e+00 -1.832868670536169198e+00 -4.415655875321604640e+00 -2.248101045393840369e+00 4.902416311868749155e-01 -1.026499358304149112e+01 7.391468689170000772e+00
-5.386041612740684048e-01 1.575655663772072668e+00 -6.352481071105762211e-01 -5.263133393031357521e+00 -1.173042476034220627e-01 6.136455580118441944e+00 -8.542043326991028973e-01 2.959645124584064924e-01 2.511500129998555764e+00 4.005304405329197515e+00
3.384359726830895587e-01 -1.143249171317252566e+00 -1.687016240363130137e+00 -7.501586804528481700e+00 4.084851458385628575e+00 1.394025593580487943e+00 -6.301153445448182122e-01 3.641740096537394500e+00 3.188131652643820146e+00 5.713711998379766843e-01
4.434388931752401009e-01 4.872058864078161466e-01 -1.631437616829103820e+00 8.973700618479028002e-01 -3.987668582758636227e+00 8.016438865384655443e+00 7.830869687047001815e-01 2.436738234878880860e+00 4.464300179372177269e+00 2.814689704056664521e+00
4.764179101846423570e-01 5.114755956571344075e-01 2.047954619319866332e+00 4.205986073659737201e+00 -2.249096246243958985e-01 3.404944416947983665e-01 -4.161540429916648520e+00 -1.569607863539638881e+00 1.354446516917718668e+00 1.260312109455921004e+01
-1.667842260955620937e-02 -4.083614271024044173e-02 -9.128384406585576816e-01 2.584300882878790340e+00 -4.617676504747640465e+00 -1.155928749913042353e+01 -8.125711382637315072e-01 -4.732420616425372373e-01 2.969525514191504456e+00 7.171277555187487884e+00
3.356824638679010153e-01 -5.312123379596882522e-01 -2.073098607387880765e+00 -3.862292458668010742e+00 -6.221420807935451602e-01 3.372276276668509709e+00 -7.034561873375644314e-01 3.656931254621571536e-01 8.607874099924170963e+00 -1.001664260073410695e+00
7.714485975706919518e-02 -3.703354101925018238e-01 1.326359321048267370e+00 -7.161350455444004393e-01 7.016587134407576976e-01 -1.268365524916508136e+01 1.147671748836972094e+00 1.103081918063007816e+00 7.145152177633802282e+00 1.415710862563219319e+00
-1.088938947810713875e+00 1.108694868654759302e-01 8.635517264405767612e-01 -2.650974587121724957e-01 -3.319821791113709786e+00 -1.638910325341449692e+01 -1.188412876913329974e+00 -8.850581043424896599e-01 3.888194842712824340e+00 1.104545921868959280e+00
-3.036661366386670391e-01 2.324955438611270853e-01 -3.693033165662956696e-01 -3.779648901296467911e-01 -2.827557048796070394e+00 9.220135311961554336e+00 -7.980591358594796292e-01 6.155325737731803803e-02 3.393958721116176136e+00 -2.630191525609287595e+00
-1.116236750523860399e+00 -2.785908378294664756e-01 3.710243552025531244e+00 1.691460704646019497e-01 -3.341332838050279919e-01 4.969068984376522558e+00 -5.308844771965783860e-01 -5.006406813051775817e-01 1.763920854093236290e+00 -8.693278025001811571e-01
-9.439438036054188519e-01 -2.721976844306306376e-03 -2.069268047158857593e-01 1.391797030788956002e-01 2.568884068015520605e-01 4.002123516824823146e-01 7.731975925815703921e-02 -6.840287967116919221e-01 -8.320473290197922811e-01 -2.045325052617153472e-01
8.242593038423851048e-02 2.618140740106122411e-01 1.684302267351003302e-01 2.418385985862647192e-01 -1.649847266929349299e-01 1.922077139738898044e-02 2.764775970314124476e-01 -1.350625290315547455e-01 1.936838091552374741e-01 2.723532264397529601e-01
4.257456088788341697e-02 4.721974439384496458e-02 1.024874535277366938e-01 1.328292849264089415e-01 -1.811046403103963032e-01 -2.501462696030597455e-01 2.079357159385449294e-01 -2.553457100738035779e-01 -2.025611667527799087e-02 4.580067400465465122e-02
7.126122053391914513e-03 -2.263942314058782768e-01 3.248126484548419235e-02 -3.788212093426063243e-02 2.101415845406446326e-01 -2.833767527851510648e-01 -2.318206424555921685e-01 -2.339365830693357906e-01 1.988542650359425012e-01 -1.722974530841757668e-01
5.246276422760731695e-02 3.461977360637802370e-02 2.192301665497922714e-01 -1.516756954819913905e-01 5.557900359260659062e-02 1.126700974430988600e-02 4.732934707544045327e-02 -2.058869431437956032e-01 2.572094169582820888e-01 2.381388082816124352e-01
-2.997939935206032080e-01 2.008370661595271778e-01 -2.797419935320577533e-01 -5.993176211985072888e-01 6.040691157674787926e-02 -5.870233701324075737e-01 -4.232078938071330843e-01 6.198917449008573000e-02 5.116525865655718874e-01 1.532635806014145174e+00
-1.036011338868978449e+00 8.203817251643469310e-02 1.094066504850532251e+00 -1.427221487046214099e+00 -2.577328390152904269e-01 1.098341543175479273e+00 1.831803035816293168e-01 -1.532210867656247810e+00 7.446916312086774958e+00 -2.118675006007011419e+00
7.400239528877616824e-02 -6.550237116223062150e-02 -1.392207192124479853e+00 -1.647511085815843268e+00 1.826593075958181100e-01 -5.682597096875126930e+00 -1.355653969069891440e+00 1.973680159049647997e+00 6.729037401581910771e+00 -3.119446172916949145e+00
5.111916159023097705e-01 -2.966252343863380880e-01 3.192161651694063185e-01 -8.838228739083529018e-01 -2.966708348172764076e-02 3.101587222835027191e+00 2.947884765152890552e-01 -3.032287565956771402e+00 4.396578218970939034e+00 6.572366170508148642e+00
3.663500201254894506e-01 -4.341877407370772768e-01 -2.090680823143955536e+00 -1.187586724880973499e-01 3.711295818468118846e-01 -1.474439197445487348e-01 2.129854191820756970e-02 1.931622396387937535e-01 -4.241944158854902724e+00 2.264047747727949478e+00
8.560130617621617422e-01 -5.136210879813072339e-01 -9.740221008633396238e-01 -3.357494926598866947e+00 1.370007919379241823e+00 -1.515846885449972925e+00 -1.295188211735293082e+00 -9.409849033671211505e-01 -1.215553939868254218e+00 2.169933918666797190e+00
-2.816886721615809996e-01 -9.094688151443099944e-01 -3.881463507292631121e+00 4.015589514711610519e+00 1.295391420715965358e+00 -1.037096777482770626e+00 1.660962207804382196e+00 -1.600635848732467004e+00 -1.232343178030945952e+00 3.837944799766059845e+00
-1.055759755054367144e+00 -2.308910103209378395e+00 -5.170822307810125196e+00 3.939150831204653258e+00 -1.486913977374240581e+00 4.845632291772284717e+00 4.541399807348192041e-01 9.496960966153285000e-01 5.162629532387801312e-01 -3.437791767036619817e+00
1.295726991880956636e-01 -2.725601180035225113e+00 -6.606200296526186122e+00 -1.158696508827621763e+00 1.840490649602216422e+00 2.128644662966111323e+00 2.033898080278492060e+00 1.865251286066156311e-01 -6.342315261561678241e+00 -4.083163343549997215e+00
-1.007673787933208942e+00 3.688665639597068502e-01 -5.579788614686410853e+00 -2.196870603358726637e+00 5.588148855104861923e+00 -1.131943787874384100e+00 1.160698890617160028e-01 -3.175743108962137740e+00 1.030154750230567018e+01 5.001177040866243928e+00
-2.120323376815348215e+00 -1.594065510277702380e-01 -3.258266677672443823e+00 -3.623736628828541306e+00 -6.342254652749423016e+00 9.117369378318112894e+00 -7.548305954683698360e-01 5.718014654689713705e-01 -1.848965345086478251e+00 -6.875591633037434480e-01
-1.687955759161002156e+00 1.814224436626042936e+00 -4.689370846332306719e+00 -2.984376216386574132e+00 1.831011718020372436e+00 -5.638320062504812213e+00 -2.024929554518132502e+00 2.676042763142201242e-01 6.280404977787573451e+00 -3.404175946241124517e+00
-3.064836932292345217e+00 1.689896040295691737e+00 -3.341745681834360493e+00 9.661840505012053271e+00 -5.771416601541380365e-01 6.541832657605167967e+00 -2.284944809501112672e-01 6.881891066694241221e-01 5.745336332260486678e-01 4.639652535075248885e+00
-1.950672585670466752e+00 -2.053595829797261185e-02 -3.283266015059634224e+00 6.741388368402910558e+00 -2.132922954989734166e+00 -7.237068114250362783e+00 1.395425177159497210e+00 4.812217043488649537e+00 7.603299190248407058e-01 2.077743044716267029e+00
-3.185751641499146025e-03 -1.374386370627251219e+00 -1.242824733005811533e+00 3.898797873039810291e+00 1.582761874502892852e+00 -4.152255162977045444e-01 -9.258931306618394252e-01 1.258764331767239675e+00 -1.497694807523669880e+01 3.694837518360572837e+00
6.938085768753254889e-02 2.619677979255563116e+00 -1.694870654639970109e+00 -2.880593387481786394e+00 8.510935435226449908e-01 -1.129451739198036719e+01 -2.229820353647419484e+00 -3.158708851329152800e+00 -3.736303878410096146e+00 -2.993596899954650503e+00
4.042481695330455427e-01 1.105214521632028823e+00 1.090412230060895826e+00 -3.104119695582292504e-01 2.200200185501203887e+00 -3.791876764870570682e+00 -1.651757687522453999e+00 5.757483947358577048e-01 2.720210258114895030e+00 5.598036244532778039e-01
4.764258321557716114e-01 2.291941597450555257e-01 -1.537851718932998102e+00 -1.866209360339314838e+00 -4.504131571653346988e-01 -5.327002701945132479e+00 9.026279318818926090e-01 -2.146078651668860360e+00 -4.277070166872934287e+00 4.488606133041773916e+00
1.811163346437861588e+00 -3.643776011468721765e-01 2.391833183744347391e+00 -4.406122226500446715e+00 1.393930868232693410e-01 -6.603403649318106083e+00 1.096461041351645349e+00 -2.872559497747549262e+00 -1.079672791239145724e-01 4.685698450194505149e+00
1.747410899797970707e+00 -2.869380756579030245e-01 -2.682774603696989502e+00 -2.266280265743826128e+00 1.375637783397147373e+00 -4.145718688988036860e+00 1.499439036328962693e+00 1.477824793481040455e+00 -4.590894507102346367e+00 5.786514864036641503e-01
-2.489639971874078039e-01 1.008940954607287499e-01 -2.928686676243736464e+00 -1.791844093591644871e+00 -7.621101490110375742e-01 -6.568830992144665260e+00 -8.211442076200148321e-01 1.676837325052771277e-01 3.499288002231594419e+00 2.362777220153775559e+00
7.794426990943694733e-01 -1.375012686233374470e-01 3.046399920132038197e+00 -3.413830463702491325e-01 -5.282612264913995048e-01 -3.586419062426141835e+00 1.192447076219541824e+00 9.120319648234815890e-01 -3.024207868261377996e+00 -1.159679982233543516e-01
-4.546694242823398069e-01 -3.981687001072680143e-01 4.491889500913727851e+00 1.731162385229083611e-01 -8.706344397468168683e-02 1.338539154004609211e+00 6.575716498769068608e-02 -2.394736955133822121e-01 5.089482711108674895e-01 -5.575246451741029396e-01
-5.181798637667819896e-02 -2.509142872482583719e-02 1.795602394680768099e-01 -2.927559271879291436e-01 1.753438381736427965e-01 -1.920242907033895552e-01 -1.325334555217008992e-01 -1.813364221094515560e-01 9.028791367939237311e-02 -8.923767769223026058e-02
-1.142357356667248469e-01 -2.070837878003719268e-01 2.801429837350766783e-01 2.504812692003963170e-01 9.901339118508301063e-02 -2.776134884714673290e-01 -1.670029954067287215e-01 -2.892141373162171458e-02 8.507972019603526892e-02 2.467019536240785960e-01
-1.177196197623563700e-01 1.249022642757210977e-01 1.684968836379295287e-01 1.058044287212431822e-01 1.680017209816827561e-01 5.497324558190741506e-02 7.745997017435829468e-02 -9.196830987285575798e-03 -1.155870410101911272e-02 -8.100198142907288901e-02
-2.077602999782451887e-02 7.151537457487527893e-02 -1.283085541007044361e-01 1.225744339416808271e-01 2.541132322223887408e-01 1.048591229071240694e-01 2.228855246060945094e-01 1.166122315742645910e-01 -2.093214643116190765e-01 -1.857093044276803828e-01
2.256492548662192843e-01 2.541514346431086868e-01 5.635714221114834777e-02 -1.182538956851301171e-01 2.568119202625088193e-01 2.854876926613003074e-01 2.512795052223128489e-01 -1.097504387944116255e-01 -4.606614286530819058e-02 1.229958817533604032e-01
-1.720468402636246286e-01 -2.676677334482623349e-01 -2.630853596754880730e-01 -1.083588654453533362e+00 2.025439462114572708e-02 -2.174199188482467404e-02 -4.600591135504931151e-01 2.707511100130111092e+00 -2.153626503066099485e-01 -3.692214353696542162e+00
-5.224272757427391722e-01 -1.129277058937909473e-01 4.958251879029221820e-01 -3.730735274499541454e+00 -4.444670084118236275e-01 3.256423799307134992e+00 1.389697113295282338e-01 -1.813107467793867889e+00 3.284565510613093320e-01 -1.424250113182836230e+00
-6.210951126030552771e-01 2.584503003811389199e-02 -3.547634802460843062e+00 -5.560065609269875253e+00 3.315769753037285383e+00 -3.984320541381531910e+00 1.240647596783617246e-02 -2.128503254430120784e+00 7.721072432633372173e+00 5.730190755327131402e-01
5.463612280941867461e-01 -4.323878596647590111e-01 -1.474518091752439641e+00 -3.535663858158553996e+00 3.013500801274606289e+00 -4.661827074850272368e+00 2.590396772901644162e+00 -1.029333416774147025e+00 -4.000468189010925713e+00 1.846177179217951103e+00
3.184422896585896168e-01 -6.038469572562583654e-01 -3.821658401610412703e+00 -2.151615304375074977e+00 1.042415474601015246e+00 6.587759908262684760e+00 8.628022533850998599e-02 -2.315732671655377217e-01 -2.947578547013461225e+00 -2.443674445065434853e+00
-5.343481830675932409e-01 -2.929671878597422952e-02 -3.665706957894746765e+00 6.090957953789648549e-01 4.792078233304195578e+00 -3.657570711169825017e+00 2.144506642872952007e-01 -7.510775039409582909e-01 3.487045048526883573e+00 -2.204528281858896044e+00
7.021020365074217562e-01 -6.585725286123425004e-01 -4.864187524953581310e+00 -1.611290018313639383e+00 -1.011052025564963097e+00 2.169712407174377855e+00 1.446715068618392275e+00 -2.033531012056867482e+00 1.576837037913141337e+00 -7.069962891036833952e-01
1.235625028377637546e+00 -2.287456313605373381e+00 -4.547052913416526287e+00 2.142064471488566380e+00 5.867113405308246321e+00 4.519535272745929255e+00 -9.531675946277085032e-01 -1.885334415901240845e+00 6.060386093784964068e-01 1.512845425823266865e+00
1.933493457231012069e+00 6.441828446325654767e-01 2.717940107250280235e+00 1.108954196301055184e+00 1.178297292088229531e+00 -6.210333330403789986e+00 2.258970997641566392e+00 -1.686982587927972066e+00 4.592040535480698793e+00 2.752291277162685290e+00
2.432044693082655584e-01 9.879301338023287471e-01 -2.550895092001023823e+00 5.725486206059206218e+00 1.220096713147350131e+00 2.606057012641773696e+00 1.109480415365260875e+00 -4.555611239868494700e+00 -2.138690412256920137e+00 -6.935980500130112247e+00
-2.089805208352515375e+00 -1.523071214586607658e-02 -9.085384348480269878e-01 8.344376437003404590e+00 -3.377838950348151847e+00 2.013313098340083762e-01 3.818635176112009644e-01 -5.814706494797196257e+00 3.851004372581640744e+00 5.222725191129067746e+00
-3.415668885776907970e+00 1.447324115658193744e+00 -1.882203082073143463e+00 -5.499706988593042745e-01 -7.141055658247239535e-01 1.924479066216048917e+00 -2.264799775886256583e+00 -1.273972038327264134e+00 -9.317403340984244053e+00 -3.140813344187740164e+00
-8.085359655629511533e-01 1.535490209807840900e+00 -3.374512235294850893e-01 -5.977616323773573548e+00 2.572305733031235775e+00 -3.311225126370291427e+00 1.509930014666854614e+00 -2.342409116449387430e+00 6.399535261391783081e+00 -1.122819448508318052e+00
-1.051271759035146358e+00 1.341894575060569306e-01 -2.125210026833103782e+00 -2.492233611497926660e+00 1.490716225901774106e+00 -4.864546708972366851e+00 -1.720466750785047516e+00 -2.254108490218147409e+00 6.157130009384633951e+00 5.132133943633938600e-01
2.575470923131330525e-01 -2.127447047674586145e+00 3.731857249583085512e+00 -2.599529763307012686e+00 2.338935843913117374e+00 2.554096240979493615e+00 9.264046414933078122e-01 3.505349406812836133e+00 7.130914141113938953e+00 -4.816791226914852508e+00
-6.342905754571142030e-01 1.562571561195659209e+00 -1.519906082270900960e+00 8.196588559218367376e-01 2.422672764285566327e+00 2.157211698046621606e-01 -2.003172357270235349e-01 3.862638214371667544e-01 1.202364937111339849e+00 3.918789497053809967e+00
-7.527559631270492879e-01 -7.196387686853051857e-01 7.860661662450108000e-01 -3.732684605553673762e+00 2.841816846860272250e-01 4.814080586665218320e+00 -1.002769914591756795e+00 -2.441858618368945688e+00 6.992657589432056398e+00 2.006096355289248123e+00
-6.828874726840814535e-01 -1.305149719726472757e+00 -2.562724931609977830e+00 2.034600521806702034e-01 5.357814425986777707e-01 2.580829832975178206e+00 6.465194247164995911e-01 3.470338070785770057e+00 1.809896216660352053e+00 -3.945923933515996573e+00
2.095571331958504757e+00 -3.819505564456126545e-01 -1.689693364476889670e+00 3.275713656657123440e+00 4.752492802130325877e-02 -5.526926246786190156e-01 1.520467375811230371e+00 5.486471248021437930e+00 6.478314436956012834e+00 3.014539712147061401e+00
1.238892707665087523e+00 -1.176043805144706966e-01 -4.110521793468718599e+00 -3.646523391205358955e+00 1.837695147557691033e+00 3.082842964788534257e+00 1.892255466016553811e+00 -3.106165759639679891e+00 -6.716197975476793758e+00 -2.419886032169016321e+00
1.551040092954085070e+00 -5.067274223104397679e-01 -7.111002062889963948e-01 -2.809545173708921428e+00 -4.482883941821242946e-01 -7.486807783886561651e+00 1.354310349075578124e+00 -1.584559845620539864e+00 5.811835159582437349e+00 -6.032984014617348123e+00
-2.031173515835840160e-01 -2.676989871561737955e-01 7.323507860181724949e-01 -4.152887113085437787e-01 1.204706204942799896e+00 -1.471928505844151047e+01 2.302190075039331152e+00 3.495383631872528429e-01 6.194395363973583812e+00 -4.999931730906052252e+00
-1.163640886635093796e+00 2.328968372081222094e-01 1.407714102383609056e+00 -1.060135445501650675e-01 2.543943231512610370e-01 -1.999949205822620368e-01 4.692917212208341793e-01 1.009584760173566353e-01 2.843079469848125207e+00 1.604272756758017837e-01
-2.812845702141373860e-01 2.645842185707049654e-01 -5.438273810273680509e-02 -4.279025628567129091e-02 -2.937996594963093178e-01 1.411089231130741029e-01 -1.179847857418419299e-01 2.955060855298841660e-01 -2.727591376346196750e-01 -1.772652986904155736e-01
